//Numpy array shape (3, 3, 32, 32)
//Min -1.000000000000
//Max 1.000000000000
//Number of zeros 0

weight_default_t w2[9216] = {1.000000000000, 1.000000000000, 1.000000000000, -1.000000000000, -1.000000000000, 1.000000000000, 1.000000000000, 1.000000000000, 1.000000000000, 1.000000000000, -1.000000000000, -1.000000000000, -1.000000000000, -1.000000000000, 1.000000000000, -1.000000000000, -1.000000000000, 1.000000000000, -1.000000000000, 1.000000000000, 1.000000000000, -1.000000000000, -1.000000000000, -1.000000000000, -1.000000000000, -1.000000000000, -1.000000000000, 1.000000000000, 1.000000000000, 1.000000000000, -1.000000000000, 1.000000000000, -1.000000000000, 1.000000000000, 1.000000000000, -1.000000000000, 1.000000000000, -1.000000000000, 1.000000000000, -1.000000000000, -1.000000000000, 1.000000000000, 1.000000000000, 1.000000000000, -1.000000000000, -1.000000000000, 1.000000000000, -1.000000000000, -1.000000000000, -1.000000000000, 1.000000000000, -1.000000000000, -1.000000000000, -1.000000000000, -1.000000000000, -1.000000000000, -1.000000000000, 1.000000000000, 1.000000000000, 1.000000000000, 1.000000000000, -1.000000000000, 1.000000000000, 1.000000000000, -1.000000000000, 1.000000000000, -1.000000000000, -1.000000000000, -1.000000000000, -1.000000000000, 1.000000000000, -1.000000000000, -1.000000000000, -1.000000000000, 1.000000000000, -1.000000000000, -1.000000000000, -1.000000000000, 1.000000000000, 1.000000000000, 1.000000000000, 1.000000000000, -1.000000000000, 1.000000000000, 1.000000000000, 1.000000000000, -1.000000000000, -1.000000000000, 1.000000000000, 1.000000000000, -1.000000000000, -1.000000000000, -1.000000000000, 1.000000000000, -1.000000000000, -1.000000000000, 1.000000000000, -1.000000000000, 1.000000000000, 1.000000000000, 1.000000000000, -1.000000000000, 1.000000000000, 1.000000000000, -1.000000000000, 1.000000000000, 1.000000000000, 1.000000000000, 1.000000000000, -1.000000000000, -1.000000000000, -1.000000000000, -1.000000000000, 1.000000000000, 1.000000000000, -1.000000000000, 1.000000000000, 1.000000000000, -1.000000000000, -1.000000000000, -1.000000000000, -1.000000000000, 1.000000000000, 1.000000000000, 1.000000000000, -1.000000000000, 1.000000000000, 1.000000000000, -1.000000000000, 1.000000000000, -1.000000000000, -1.000000000000, 1.000000000000, -1.000000000000, 1.000000000000, -1.000000000000, -1.000000000000, 1.000000000000, 1.000000000000, -1.000000000000, -1.000000000000, -1.000000000000, -1.000000000000, -1.000000000000, -1.000000000000, 1.000000000000, -1.000000000000, -1.000000000000, 1.000000000000, -1.000000000000, 1.000000000000, 1.000000000000, -1.000000000000, 1.000000000000, 1.000000000000, 1.000000000000, 1.000000000000, 1.000000000000, 1.000000000000, -1.000000000000, -1.000000000000, 1.000000000000, -1.000000000000, 1.000000000000, 1.000000000000, 1.000000000000, -1.000000000000, 1.000000000000, 1.000000000000, -1.000000000000, 1.000000000000, 1.000000000000, 1.000000000000, -1.000000000000, 1.000000000000, 1.000000000000, 1.000000000000, 1.000000000000, 1.000000000000, -1.000000000000, 1.000000000000, -1.000000000000, 1.000000000000, -1.000000000000, -1.000000000000, 1.000000000000, 1.000000000000, 1.000000000000, 1.000000000000, 1.000000000000, 1.000000000000, -1.000000000000, -1.000000000000, 1.000000000000, -1.000000000000, -1.000000000000, 1.000000000000, -1.000000000000, 1.000000000000, 1.000000000000, 1.000000000000, -1.000000000000, 1.000000000000, -1.000000000000, 1.000000000000, 1.000000000000, 1.000000000000, -1.000000000000, -1.000000000000, -1.000000000000, 1.000000000000, 1.000000000000, 1.000000000000, 1.000000000000, 1.000000000000, -1.000000000000, -1.000000000000, -1.000000000000, -1.000000000000, 1.000000000000, 1.000000000000, -1.000000000000, 1.000000000000, -1.000000000000, -1.000000000000, 1.000000000000, -1.000000000000, 1.000000000000, 1.000000000000, -1.000000000000, -1.000000000000, 1.000000000000, 1.000000000000, 1.000000000000, -1.000000000000, 1.000000000000, 1.000000000000, 1.000000000000, -1.000000000000, 1.000000000000, -1.000000000000, 1.000000000000, 1.000000000000, 1.000000000000, 1.000000000000, 1.000000000000, 1.000000000000, 1.000000000000, 1.000000000000, -1.000000000000, 1.000000000000, -1.000000000000, -1.000000000000, -1.000000000000, -1.000000000000, -1.000000000000, -1.000000000000, 1.000000000000, 1.000000000000, 1.000000000000, -1.000000000000, 1.000000000000, 1.000000000000, 1.000000000000, -1.000000000000, 1.000000000000, -1.000000000000, 1.000000000000, -1.000000000000, 1.000000000000, 1.000000000000, -1.000000000000, -1.000000000000, -1.000000000000, -1.000000000000, -1.000000000000, -1.000000000000, -1.000000000000, 1.000000000000, 1.000000000000, -1.000000000000, -1.000000000000, 1.000000000000, 1.000000000000, -1.000000000000, 1.000000000000, -1.000000000000, -1.000000000000, -1.000000000000, 1.000000000000, -1.000000000000, 1.000000000000, -1.000000000000, -1.000000000000, -1.000000000000, 1.000000000000, 1.000000000000, -1.000000000000, -1.000000000000, -1.000000000000, 1.000000000000, -1.000000000000, -1.000000000000, 1.000000000000, -1.000000000000, -1.000000000000, -1.000000000000, 1.000000000000, 1.000000000000, 1.000000000000, -1.000000000000, -1.000000000000, -1.000000000000, -1.000000000000, -1.000000000000, -1.000000000000, -1.000000000000, -1.000000000000, 1.000000000000, -1.000000000000, 1.000000000000, -1.000000000000, -1.000000000000, 1.000000000000, -1.000000000000, -1.000000000000, 1.000000000000, -1.000000000000, 1.000000000000, -1.000000000000, 1.000000000000, -1.000000000000, -1.000000000000, 1.000000000000, 1.000000000000, -1.000000000000, 1.000000000000, -1.000000000000, -1.000000000000, 1.000000000000, -1.000000000000, 1.000000000000, -1.000000000000, 1.000000000000, 1.000000000000, 1.000000000000, -1.000000000000, -1.000000000000, 1.000000000000, -1.000000000000, 1.000000000000, 1.000000000000, 1.000000000000, 1.000000000000, 1.000000000000, -1.000000000000, -1.000000000000, 1.000000000000, -1.000000000000, -1.000000000000, -1.000000000000, -1.000000000000, -1.000000000000, -1.000000000000, -1.000000000000, 1.000000000000, 1.000000000000, 1.000000000000, 1.000000000000, 1.000000000000, 1.000000000000, -1.000000000000, 1.000000000000, 1.000000000000, -1.000000000000, 1.000000000000, 1.000000000000, -1.000000000000, -1.000000000000, -1.000000000000, -1.000000000000, 1.000000000000, -1.000000000000, -1.000000000000, 1.000000000000, -1.000000000000, 1.000000000000, -1.000000000000, -1.000000000000, -1.000000000000, 1.000000000000, -1.000000000000, -1.000000000000, -1.000000000000, 1.000000000000, 1.000000000000, 1.000000000000, 1.000000000000, -1.000000000000, -1.000000000000, -1.000000000000, -1.000000000000, -1.000000000000, -1.000000000000, 1.000000000000, 1.000000000000, -1.000000000000, -1.000000000000, -1.000000000000, -1.000000000000, 1.000000000000, -1.000000000000, -1.000000000000, 1.000000000000, 1.000000000000, -1.000000000000, 1.000000000000, 1.000000000000, -1.000000000000, 1.000000000000, -1.000000000000, 1.000000000000, 1.000000000000, -1.000000000000, -1.000000000000, -1.000000000000, 1.000000000000, 1.000000000000, 1.000000000000, -1.000000000000, 1.000000000000, 1.000000000000, 1.000000000000, 1.000000000000, -1.000000000000, -1.000000000000, -1.000000000000, -1.000000000000, -1.000000000000, 1.000000000000, 1.000000000000, -1.000000000000, 1.000000000000, 1.000000000000, 1.000000000000, 1.000000000000, 1.000000000000, -1.000000000000, 1.000000000000, 1.000000000000, -1.000000000000, 1.000000000000, 1.000000000000, 1.000000000000, 1.000000000000, 1.000000000000, -1.000000000000, -1.000000000000, 1.000000000000, -1.000000000000, -1.000000000000, 1.000000000000, -1.000000000000, 1.000000000000, 1.000000000000, 1.000000000000, 1.000000000000, 1.000000000000, 1.000000000000, -1.000000000000, -1.000000000000, 1.000000000000, -1.000000000000, 1.000000000000, -1.000000000000, 1.000000000000, 1.000000000000, -1.000000000000, -1.000000000000, -1.000000000000, 1.000000000000, 1.000000000000, -1.000000000000, -1.000000000000, 1.000000000000, -1.000000000000, -1.000000000000, 1.000000000000, -1.000000000000, 1.000000000000, 1.000000000000, -1.000000000000, -1.000000000000, 1.000000000000, -1.000000000000, -1.000000000000, -1.000000000000, -1.000000000000, -1.000000000000, 1.000000000000, 1.000000000000, 1.000000000000, 1.000000000000, 1.000000000000, 1.000000000000, 1.000000000000, -1.000000000000, -1.000000000000, -1.000000000000, -1.000000000000, -1.000000000000, 1.000000000000, 1.000000000000, 1.000000000000, 1.000000000000, -1.000000000000, -1.000000000000, -1.000000000000, 1.000000000000, 1.000000000000, -1.000000000000, -1.000000000000, 1.000000000000, -1.000000000000, 1.000000000000, -1.000000000000, -1.000000000000, -1.000000000000, 1.000000000000, -1.000000000000, -1.000000000000, -1.000000000000, 1.000000000000, -1.000000000000, -1.000000000000, 1.000000000000, 1.000000000000, -1.000000000000, -1.000000000000, -1.000000000000, 1.000000000000, -1.000000000000, -1.000000000000, 1.000000000000, -1.000000000000, -1.000000000000, 1.000000000000, -1.000000000000, 1.000000000000, -1.000000000000, -1.000000000000, 1.000000000000, 1.000000000000, -1.000000000000, 1.000000000000, 1.000000000000, 1.000000000000, -1.000000000000, -1.000000000000, 1.000000000000, 1.000000000000, 1.000000000000, 1.000000000000, 1.000000000000, 1.000000000000, -1.000000000000, -1.000000000000, -1.000000000000, -1.000000000000, 1.000000000000, -1.000000000000, -1.000000000000, -1.000000000000, 1.000000000000, -1.000000000000, -1.000000000000, -1.000000000000, -1.000000000000, 1.000000000000, -1.000000000000, 1.000000000000, 1.000000000000, -1.000000000000, -1.000000000000, 1.000000000000, 1.000000000000, 1.000000000000, -1.000000000000, -1.000000000000, -1.000000000000, -1.000000000000, 1.000000000000, -1.000000000000, 1.000000000000, -1.000000000000, 1.000000000000, -1.000000000000, 1.000000000000, 1.000000000000, 1.000000000000, 1.000000000000, 1.000000000000, -1.000000000000, 1.000000000000, 1.000000000000, 1.000000000000, 1.000000000000, -1.000000000000, -1.000000000000, 1.000000000000, 1.000000000000, 1.000000000000, -1.000000000000, -1.000000000000, -1.000000000000, -1.000000000000, 1.000000000000, -1.000000000000, -1.000000000000, 1.000000000000, -1.000000000000, 1.000000000000, 1.000000000000, 1.000000000000, -1.000000000000, -1.000000000000, 1.000000000000, 1.000000000000, 1.000000000000, 1.000000000000, 1.000000000000, 1.000000000000, 1.000000000000, 1.000000000000, -1.000000000000, 1.000000000000, -1.000000000000, 1.000000000000, -1.000000000000, 1.000000000000, -1.000000000000, 1.000000000000, 1.000000000000, 1.000000000000, -1.000000000000, 1.000000000000, 1.000000000000, 1.000000000000, 1.000000000000, -1.000000000000, -1.000000000000, 1.000000000000, -1.000000000000, -1.000000000000, -1.000000000000, -1.000000000000, 1.000000000000, -1.000000000000, -1.000000000000, -1.000000000000, -1.000000000000, -1.000000000000, 1.000000000000, 1.000000000000, -1.000000000000, -1.000000000000, -1.000000000000, 1.000000000000, 1.000000000000, -1.000000000000, 1.000000000000, -1.000000000000, -1.000000000000, -1.000000000000, 1.000000000000, 1.000000000000, -1.000000000000, -1.000000000000, -1.000000000000, 1.000000000000, 1.000000000000, 1.000000000000, 1.000000000000, 1.000000000000, 1.000000000000, 1.000000000000, -1.000000000000, -1.000000000000, 1.000000000000, -1.000000000000, -1.000000000000, 1.000000000000, -1.000000000000, 1.000000000000, -1.000000000000, -1.000000000000, -1.000000000000, 1.000000000000, -1.000000000000, -1.000000000000, 1.000000000000, -1.000000000000, -1.000000000000, -1.000000000000, -1.000000000000, -1.000000000000, -1.000000000000, 1.000000000000, 1.000000000000, -1.000000000000, 1.000000000000, -1.000000000000, -1.000000000000, -1.000000000000, -1.000000000000, 1.000000000000, 1.000000000000, -1.000000000000, 1.000000000000, 1.000000000000, 1.000000000000, -1.000000000000, -1.000000000000, 1.000000000000, -1.000000000000, 1.000000000000, 1.000000000000, -1.000000000000, -1.000000000000, 1.000000000000, 1.000000000000, -1.000000000000, -1.000000000000, 1.000000000000, -1.000000000000, 1.000000000000, -1.000000000000, -1.000000000000, -1.000000000000, 1.000000000000, 1.000000000000, 1.000000000000, 1.000000000000, 1.000000000000, -1.000000000000, -1.000000000000, 1.000000000000, 1.000000000000, -1.000000000000, -1.000000000000, 1.000000000000, -1.000000000000, 1.000000000000, 1.000000000000, 1.000000000000, -1.000000000000, 1.000000000000, -1.000000000000, 1.000000000000, -1.000000000000, -1.000000000000, -1.000000000000, 1.000000000000, 1.000000000000, -1.000000000000, -1.000000000000, -1.000000000000, 1.000000000000, 1.000000000000, -1.000000000000, 1.000000000000, -1.000000000000, 1.000000000000, 1.000000000000, -1.000000000000, 1.000000000000, 1.000000000000, -1.000000000000, 1.000000000000, -1.000000000000, -1.000000000000, 1.000000000000, -1.000000000000, 1.000000000000, 1.000000000000, -1.000000000000, -1.000000000000, 1.000000000000, 1.000000000000, -1.000000000000, 1.000000000000, 1.000000000000, 1.000000000000, 1.000000000000, 1.000000000000, -1.000000000000, -1.000000000000, -1.000000000000, -1.000000000000, 1.000000000000, -1.000000000000, -1.000000000000, 1.000000000000, 1.000000000000, 1.000000000000, -1.000000000000, -1.000000000000, -1.000000000000, -1.000000000000, 1.000000000000, -1.000000000000, -1.000000000000, 1.000000000000, 1.000000000000, 1.000000000000, 1.000000000000, -1.000000000000, 1.000000000000, 1.000000000000, -1.000000000000, 1.000000000000, -1.000000000000, -1.000000000000, -1.000000000000, 1.000000000000, 1.000000000000, 1.000000000000, -1.000000000000, 1.000000000000, -1.000000000000, 1.000000000000, 1.000000000000, 1.000000000000, -1.000000000000, -1.000000000000, -1.000000000000, 1.000000000000, 1.000000000000, 1.000000000000, -1.000000000000, -1.000000000000, 1.000000000000, 1.000000000000, -1.000000000000, -1.000000000000, -1.000000000000, 1.000000000000, 1.000000000000, -1.000000000000, -1.000000000000, 1.000000000000, 1.000000000000, 1.000000000000, 1.000000000000, 1.000000000000, -1.000000000000, 1.000000000000, -1.000000000000, -1.000000000000, -1.000000000000, 1.000000000000, -1.000000000000, 1.000000000000, -1.000000000000, 1.000000000000, -1.000000000000, -1.000000000000, 1.000000000000, -1.000000000000, 1.000000000000, 1.000000000000, 1.000000000000, 1.000000000000, -1.000000000000, -1.000000000000, 1.000000000000, 1.000000000000, 1.000000000000, 1.000000000000, 1.000000000000, -1.000000000000, 1.000000000000, -1.000000000000, 1.000000000000, 1.000000000000, 1.000000000000, -1.000000000000, -1.000000000000, -1.000000000000, -1.000000000000, -1.000000000000, -1.000000000000, 1.000000000000, 1.000000000000, 1.000000000000, -1.000000000000, -1.000000000000, -1.000000000000, -1.000000000000, -1.000000000000, 1.000000000000, -1.000000000000, -1.000000000000, -1.000000000000, 1.000000000000, 1.000000000000, -1.000000000000, -1.000000000000, -1.000000000000, -1.000000000000, -1.000000000000, -1.000000000000, -1.000000000000, 1.000000000000, -1.000000000000, 1.000000000000, 1.000000000000, 1.000000000000, 1.000000000000, 1.000000000000, -1.000000000000, 1.000000000000, -1.000000000000, 1.000000000000, -1.000000000000, 1.000000000000, -1.000000000000, -1.000000000000, 1.000000000000, 1.000000000000, 1.000000000000, 1.000000000000, 1.000000000000, -1.000000000000, -1.000000000000, -1.000000000000, -1.000000000000, 1.000000000000, 1.000000000000, -1.000000000000, 1.000000000000, -1.000000000000, 1.000000000000, -1.000000000000, -1.000000000000, -1.000000000000, 1.000000000000, -1.000000000000, 1.000000000000, -1.000000000000, 1.000000000000, 1.000000000000, -1.000000000000, -1.000000000000, 1.000000000000, -1.000000000000, -1.000000000000, 1.000000000000, 1.000000000000, -1.000000000000, 1.000000000000, 1.000000000000, -1.000000000000, -1.000000000000, -1.000000000000, -1.000000000000, -1.000000000000, 1.000000000000, 1.000000000000, -1.000000000000, 1.000000000000, 1.000000000000, 1.000000000000, -1.000000000000, 1.000000000000, -1.000000000000, -1.000000000000, 1.000000000000, -1.000000000000, -1.000000000000, -1.000000000000, 1.000000000000, -1.000000000000, 1.000000000000, -1.000000000000, -1.000000000000, 1.000000000000, -1.000000000000, -1.000000000000, 1.000000000000, -1.000000000000, -1.000000000000, -1.000000000000, 1.000000000000, -1.000000000000, 1.000000000000, 1.000000000000, -1.000000000000, -1.000000000000, 1.000000000000, -1.000000000000, 1.000000000000, -1.000000000000, -1.000000000000, -1.000000000000, 1.000000000000, -1.000000000000, 1.000000000000, -1.000000000000, -1.000000000000, 1.000000000000, -1.000000000000, -1.000000000000, -1.000000000000, -1.000000000000, -1.000000000000, 1.000000000000, -1.000000000000, -1.000000000000, 1.000000000000, 1.000000000000, -1.000000000000, -1.000000000000, -1.000000000000, 1.000000000000, 1.000000000000, 1.000000000000, -1.000000000000, -1.000000000000, -1.000000000000, -1.000000000000, 1.000000000000, 1.000000000000, 1.000000000000, -1.000000000000, -1.000000000000, -1.000000000000, 1.000000000000, 1.000000000000, -1.000000000000, 1.000000000000, -1.000000000000, 1.000000000000, 1.000000000000, -1.000000000000, -1.000000000000, 1.000000000000, -1.000000000000, 1.000000000000, -1.000000000000, 1.000000000000, -1.000000000000, 1.000000000000, 1.000000000000, -1.000000000000, -1.000000000000, -1.000000000000, 1.000000000000, -1.000000000000, -1.000000000000, 1.000000000000, 1.000000000000, -1.000000000000, -1.000000000000, -1.000000000000, -1.000000000000, 1.000000000000, -1.000000000000, 1.000000000000, 1.000000000000, -1.000000000000, 1.000000000000, 1.000000000000, -1.000000000000, -1.000000000000, 1.000000000000, 1.000000000000, -1.000000000000, 1.000000000000, -1.000000000000, 1.000000000000, 1.000000000000, -1.000000000000, -1.000000000000, -1.000000000000, -1.000000000000, -1.000000000000, 1.000000000000, 1.000000000000, 1.000000000000, 1.000000000000, -1.000000000000, 1.000000000000, -1.000000000000, 1.000000000000, -1.000000000000, 1.000000000000, -1.000000000000, 1.000000000000, -1.000000000000, 1.000000000000, 1.000000000000, 1.000000000000, 1.000000000000, 1.000000000000, 1.000000000000, 1.000000000000, -1.000000000000, 1.000000000000, -1.000000000000, 1.000000000000, 1.000000000000, -1.000000000000, -1.000000000000, 1.000000000000, -1.000000000000, 1.000000000000, -1.000000000000, 1.000000000000, -1.000000000000, -1.000000000000, 1.000000000000, 1.000000000000, 1.000000000000, 1.000000000000, -1.000000000000, 1.000000000000, -1.000000000000, 1.000000000000, 1.000000000000, -1.000000000000, 1.000000000000, -1.000000000000, -1.000000000000, -1.000000000000, 1.000000000000, -1.000000000000, 1.000000000000, 1.000000000000, 1.000000000000, 1.000000000000, 1.000000000000, 1.000000000000, 1.000000000000, -1.000000000000, -1.000000000000, 1.000000000000, -1.000000000000, -1.000000000000, 1.000000000000, 1.000000000000, 1.000000000000, 1.000000000000, -1.000000000000, 1.000000000000, -1.000000000000, -1.000000000000, 1.000000000000, -1.000000000000, 1.000000000000, -1.000000000000, -1.000000000000, 1.000000000000, -1.000000000000, -1.000000000000, -1.000000000000, -1.000000000000, 1.000000000000, 1.000000000000, -1.000000000000, -1.000000000000, -1.000000000000, 1.000000000000, 1.000000000000, -1.000000000000, 1.000000000000, 1.000000000000, 1.000000000000, -1.000000000000, -1.000000000000, -1.000000000000, -1.000000000000, -1.000000000000, -1.000000000000, 1.000000000000, 1.000000000000, -1.000000000000, 1.000000000000, 1.000000000000, 1.000000000000, 1.000000000000, 1.000000000000, -1.000000000000, -1.000000000000, 1.000000000000, -1.000000000000, -1.000000000000, 1.000000000000, 1.000000000000, 1.000000000000, 1.000000000000, 1.000000000000, 1.000000000000, -1.000000000000, 1.000000000000, -1.000000000000, 1.000000000000, 1.000000000000, -1.000000000000, 1.000000000000, -1.000000000000, -1.000000000000, 1.000000000000, -1.000000000000, 1.000000000000, -1.000000000000, -1.000000000000, 1.000000000000, -1.000000000000, -1.000000000000, -1.000000000000, 1.000000000000, 1.000000000000, 1.000000000000, -1.000000000000, 1.000000000000, -1.000000000000, 1.000000000000, 1.000000000000, 1.000000000000, -1.000000000000, 1.000000000000, -1.000000000000, -1.000000000000, -1.000000000000, -1.000000000000, 1.000000000000, -1.000000000000, -1.000000000000, -1.000000000000, 1.000000000000, -1.000000000000, -1.000000000000, 1.000000000000, -1.000000000000, -1.000000000000, -1.000000000000, -1.000000000000, 1.000000000000, -1.000000000000, 1.000000000000, 1.000000000000, -1.000000000000, -1.000000000000, -1.000000000000, 1.000000000000, 1.000000000000, -1.000000000000, -1.000000000000, 1.000000000000, -1.000000000000, -1.000000000000, -1.000000000000, 1.000000000000, -1.000000000000, -1.000000000000, 1.000000000000, 1.000000000000, -1.000000000000, 1.000000000000, -1.000000000000, -1.000000000000, 1.000000000000, -1.000000000000, -1.000000000000, 1.000000000000, -1.000000000000, 1.000000000000, 1.000000000000, -1.000000000000, 1.000000000000, 1.000000000000, -1.000000000000, 1.000000000000, -1.000000000000, -1.000000000000, 1.000000000000, 1.000000000000, 1.000000000000, -1.000000000000, -1.000000000000, 1.000000000000, 1.000000000000, 1.000000000000, 1.000000000000, 1.000000000000, -1.000000000000, -1.000000000000, 1.000000000000, -1.000000000000, 1.000000000000, -1.000000000000, 1.000000000000, 1.000000000000, 1.000000000000, -1.000000000000, 1.000000000000, 1.000000000000, -1.000000000000, 1.000000000000, -1.000000000000, 1.000000000000, -1.000000000000, 1.000000000000, -1.000000000000, 1.000000000000, 1.000000000000, 1.000000000000, 1.000000000000, -1.000000000000, -1.000000000000, -1.000000000000, 1.000000000000, -1.000000000000, -1.000000000000, -1.000000000000, 1.000000000000, -1.000000000000, 1.000000000000, 1.000000000000, 1.000000000000, -1.000000000000, 1.000000000000, 1.000000000000, -1.000000000000, 1.000000000000, -1.000000000000, -1.000000000000, -1.000000000000, 1.000000000000, 1.000000000000, -1.000000000000, -1.000000000000, -1.000000000000, -1.000000000000, 1.000000000000, -1.000000000000, 1.000000000000, 1.000000000000, -1.000000000000, -1.000000000000, 1.000000000000, 1.000000000000, -1.000000000000, 1.000000000000, -1.000000000000, -1.000000000000, 1.000000000000, -1.000000000000, 1.000000000000, -1.000000000000, 1.000000000000, -1.000000000000, -1.000000000000, -1.000000000000, 1.000000000000, 1.000000000000, -1.000000000000, 1.000000000000, -1.000000000000, -1.000000000000, -1.000000000000, 1.000000000000, -1.000000000000, 1.000000000000, -1.000000000000, 1.000000000000, 1.000000000000, 1.000000000000, 1.000000000000, -1.000000000000, -1.000000000000, -1.000000000000, 1.000000000000, 1.000000000000, -1.000000000000, -1.000000000000, -1.000000000000, -1.000000000000, 1.000000000000, -1.000000000000, -1.000000000000, -1.000000000000, -1.000000000000, -1.000000000000, -1.000000000000, -1.000000000000, -1.000000000000, 1.000000000000, 1.000000000000, -1.000000000000, -1.000000000000, -1.000000000000, -1.000000000000, 1.000000000000, -1.000000000000, -1.000000000000, 1.000000000000, 1.000000000000, 1.000000000000, -1.000000000000, -1.000000000000, 1.000000000000, -1.000000000000, 1.000000000000, -1.000000000000, 1.000000000000, 1.000000000000, -1.000000000000, 1.000000000000, 1.000000000000, -1.000000000000, -1.000000000000, -1.000000000000, 1.000000000000, -1.000000000000, 1.000000000000, -1.000000000000, -1.000000000000, -1.000000000000, -1.000000000000, 1.000000000000, -1.000000000000, -1.000000000000, 1.000000000000, 1.000000000000, -1.000000000000, 1.000000000000, 1.000000000000, 1.000000000000, -1.000000000000, 1.000000000000, -1.000000000000, -1.000000000000, 1.000000000000, -1.000000000000, -1.000000000000, 1.000000000000, -1.000000000000, -1.000000000000, -1.000000000000, 1.000000000000, 1.000000000000, -1.000000000000, -1.000000000000, 1.000000000000, -1.000000000000, 1.000000000000, -1.000000000000, -1.000000000000, -1.000000000000, -1.000000000000, -1.000000000000, 1.000000000000, 1.000000000000, 1.000000000000, 1.000000000000, 1.000000000000, -1.000000000000, -1.000000000000, 1.000000000000, 1.000000000000, -1.000000000000, -1.000000000000, 1.000000000000, 1.000000000000, -1.000000000000, 1.000000000000, 1.000000000000, -1.000000000000, 1.000000000000, -1.000000000000, -1.000000000000, 1.000000000000, -1.000000000000, 1.000000000000, -1.000000000000, 1.000000000000, 1.000000000000, -1.000000000000, -1.000000000000, -1.000000000000, 1.000000000000, -1.000000000000, 1.000000000000, -1.000000000000, -1.000000000000, 1.000000000000, -1.000000000000, -1.000000000000, -1.000000000000, 1.000000000000, -1.000000000000, 1.000000000000, 1.000000000000, -1.000000000000, 1.000000000000, 1.000000000000, 1.000000000000, -1.000000000000, 1.000000000000, -1.000000000000, -1.000000000000, 1.000000000000, 1.000000000000, -1.000000000000, -1.000000000000, -1.000000000000, 1.000000000000, 1.000000000000, -1.000000000000, -1.000000000000, -1.000000000000, -1.000000000000, -1.000000000000, 1.000000000000, 1.000000000000, 1.000000000000, 1.000000000000, 1.000000000000, -1.000000000000, -1.000000000000, 1.000000000000, 1.000000000000, 1.000000000000, -1.000000000000, -1.000000000000, 1.000000000000, 1.000000000000, 1.000000000000, 1.000000000000, -1.000000000000, -1.000000000000, 1.000000000000, 1.000000000000, -1.000000000000, -1.000000000000, 1.000000000000, -1.000000000000, 1.000000000000, 1.000000000000, -1.000000000000, -1.000000000000, -1.000000000000, 1.000000000000, -1.000000000000, -1.000000000000, -1.000000000000, -1.000000000000, -1.000000000000, -1.000000000000, 1.000000000000, -1.000000000000, -1.000000000000, -1.000000000000, 1.000000000000, -1.000000000000, 1.000000000000, 1.000000000000, -1.000000000000, -1.000000000000, -1.000000000000, 1.000000000000, -1.000000000000, 1.000000000000, 1.000000000000, -1.000000000000, 1.000000000000, 1.000000000000, 1.000000000000, -1.000000000000, -1.000000000000, -1.000000000000, -1.000000000000, -1.000000000000, 1.000000000000, 1.000000000000, -1.000000000000, 1.000000000000, 1.000000000000, -1.000000000000, -1.000000000000, -1.000000000000, -1.000000000000, 1.000000000000, 1.000000000000, 1.000000000000, 1.000000000000, 1.000000000000, -1.000000000000, -1.000000000000, 1.000000000000, 1.000000000000, -1.000000000000, 1.000000000000, -1.000000000000, -1.000000000000, -1.000000000000, 1.000000000000, 1.000000000000, 1.000000000000, -1.000000000000, -1.000000000000, -1.000000000000, 1.000000000000, 1.000000000000, 1.000000000000, -1.000000000000, 1.000000000000, -1.000000000000, 1.000000000000, -1.000000000000, 1.000000000000, -1.000000000000, -1.000000000000, -1.000000000000, 1.000000000000, -1.000000000000, -1.000000000000, -1.000000000000, 1.000000000000, -1.000000000000, -1.000000000000, 1.000000000000, 1.000000000000, 1.000000000000, 1.000000000000, -1.000000000000, -1.000000000000, 1.000000000000, -1.000000000000, -1.000000000000, -1.000000000000, 1.000000000000, 1.000000000000, 1.000000000000, -1.000000000000, -1.000000000000, -1.000000000000, -1.000000000000, 1.000000000000, 1.000000000000, 1.000000000000, -1.000000000000, -1.000000000000, 1.000000000000, -1.000000000000, -1.000000000000, 1.000000000000, 1.000000000000, -1.000000000000, 1.000000000000, -1.000000000000, 1.000000000000, 1.000000000000, -1.000000000000, -1.000000000000, 1.000000000000, -1.000000000000, -1.000000000000, -1.000000000000, 1.000000000000, -1.000000000000, -1.000000000000, -1.000000000000, 1.000000000000, 1.000000000000, -1.000000000000, -1.000000000000, 1.000000000000, -1.000000000000, -1.000000000000, 1.000000000000, -1.000000000000, -1.000000000000, -1.000000000000, -1.000000000000, -1.000000000000, 1.000000000000, -1.000000000000, 1.000000000000, 1.000000000000, 1.000000000000, 1.000000000000, -1.000000000000, -1.000000000000, -1.000000000000, -1.000000000000, 1.000000000000, 1.000000000000, -1.000000000000, 1.000000000000, -1.000000000000, 1.000000000000, 1.000000000000, -1.000000000000, -1.000000000000, 1.000000000000, 1.000000000000, 1.000000000000, 1.000000000000, -1.000000000000, -1.000000000000, -1.000000000000, -1.000000000000, -1.000000000000, -1.000000000000, 1.000000000000, -1.000000000000, -1.000000000000, -1.000000000000, -1.000000000000, 1.000000000000, 1.000000000000, 1.000000000000, -1.000000000000, 1.000000000000, -1.000000000000, -1.000000000000, 1.000000000000, -1.000000000000, -1.000000000000, 1.000000000000, -1.000000000000, 1.000000000000, 1.000000000000, -1.000000000000, 1.000000000000, -1.000000000000, -1.000000000000, -1.000000000000, -1.000000000000, 1.000000000000, 1.000000000000, -1.000000000000, -1.000000000000, -1.000000000000, 1.000000000000, 1.000000000000, 1.000000000000, -1.000000000000, 1.000000000000, -1.000000000000, -1.000000000000, 1.000000000000, -1.000000000000, -1.000000000000, 1.000000000000, 1.000000000000, 1.000000000000, 1.000000000000, -1.000000000000, -1.000000000000, -1.000000000000, 1.000000000000, -1.000000000000, -1.000000000000, -1.000000000000, 1.000000000000, 1.000000000000, 1.000000000000, 1.000000000000, 1.000000000000, 1.000000000000, -1.000000000000, 1.000000000000, 1.000000000000, 1.000000000000, -1.000000000000, -1.000000000000, -1.000000000000, -1.000000000000, 1.000000000000, -1.000000000000, -1.000000000000, 1.000000000000, 1.000000000000, -1.000000000000, 1.000000000000, -1.000000000000, 1.000000000000, 1.000000000000, 1.000000000000, 1.000000000000, -1.000000000000, 1.000000000000, -1.000000000000, 1.000000000000, -1.000000000000, 1.000000000000, -1.000000000000, -1.000000000000, 1.000000000000, 1.000000000000, -1.000000000000, -1.000000000000, 1.000000000000, -1.000000000000, -1.000000000000, 1.000000000000, -1.000000000000, -1.000000000000, 1.000000000000, 1.000000000000, -1.000000000000, -1.000000000000, 1.000000000000, 1.000000000000, -1.000000000000, 1.000000000000, -1.000000000000, 1.000000000000, -1.000000000000, -1.000000000000, -1.000000000000, -1.000000000000, 1.000000000000, -1.000000000000, 1.000000000000, 1.000000000000, -1.000000000000, 1.000000000000, 1.000000000000, -1.000000000000, 1.000000000000, 1.000000000000, 1.000000000000, -1.000000000000, 1.000000000000, -1.000000000000, 1.000000000000, 1.000000000000, 1.000000000000, -1.000000000000, 1.000000000000, 1.000000000000, 1.000000000000, 1.000000000000, -1.000000000000, 1.000000000000, 1.000000000000, -1.000000000000, 1.000000000000, 1.000000000000, -1.000000000000, 1.000000000000, -1.000000000000, 1.000000000000, 1.000000000000, -1.000000000000, 1.000000000000, -1.000000000000, -1.000000000000, -1.000000000000, 1.000000000000, 1.000000000000, -1.000000000000, -1.000000000000, -1.000000000000, -1.000000000000, 1.000000000000, 1.000000000000, -1.000000000000, -1.000000000000, -1.000000000000, -1.000000000000, -1.000000000000, 1.000000000000, 1.000000000000, -1.000000000000, -1.000000000000, -1.000000000000, -1.000000000000, 1.000000000000, 1.000000000000, 1.000000000000, 1.000000000000, -1.000000000000, -1.000000000000, 1.000000000000, 1.000000000000, 1.000000000000, -1.000000000000, 1.000000000000, 1.000000000000, -1.000000000000, -1.000000000000, -1.000000000000, 1.000000000000, 1.000000000000, 1.000000000000, -1.000000000000, 1.000000000000, -1.000000000000, 1.000000000000, 1.000000000000, -1.000000000000, -1.000000000000, 1.000000000000, 1.000000000000, 1.000000000000, 1.000000000000, 1.000000000000, 1.000000000000, 1.000000000000, -1.000000000000, 1.000000000000, -1.000000000000, 1.000000000000, 1.000000000000, 1.000000000000, -1.000000000000, 1.000000000000, -1.000000000000, 1.000000000000, 1.000000000000, 1.000000000000, -1.000000000000, -1.000000000000, -1.000000000000, -1.000000000000, 1.000000000000, 1.000000000000, 1.000000000000, 1.000000000000, 1.000000000000, -1.000000000000, -1.000000000000, 1.000000000000, 1.000000000000, 1.000000000000, -1.000000000000, -1.000000000000, -1.000000000000, -1.000000000000, -1.000000000000, 1.000000000000, -1.000000000000, -1.000000000000, -1.000000000000, -1.000000000000, -1.000000000000, -1.000000000000, 1.000000000000, 1.000000000000, 1.000000000000, -1.000000000000, 1.000000000000, -1.000000000000, 1.000000000000, -1.000000000000, 1.000000000000, -1.000000000000, 1.000000000000, 1.000000000000, 1.000000000000, 1.000000000000, 1.000000000000, -1.000000000000, -1.000000000000, 1.000000000000, -1.000000000000, -1.000000000000, -1.000000000000, -1.000000000000, 1.000000000000, -1.000000000000, 1.000000000000, 1.000000000000, 1.000000000000, 1.000000000000, 1.000000000000, 1.000000000000, -1.000000000000, -1.000000000000, -1.000000000000, -1.000000000000, -1.000000000000, 1.000000000000, 1.000000000000, 1.000000000000, 1.000000000000, -1.000000000000, -1.000000000000, -1.000000000000, 1.000000000000, 1.000000000000, 1.000000000000, 1.000000000000, 1.000000000000, -1.000000000000, 1.000000000000, -1.000000000000, -1.000000000000, -1.000000000000, -1.000000000000, 1.000000000000, -1.000000000000, -1.000000000000, 1.000000000000, 1.000000000000, -1.000000000000, -1.000000000000, 1.000000000000, 1.000000000000, 1.000000000000, 1.000000000000, 1.000000000000, -1.000000000000, -1.000000000000, -1.000000000000, 1.000000000000, 1.000000000000, 1.000000000000, 1.000000000000, 1.000000000000, 1.000000000000, 1.000000000000, 1.000000000000, -1.000000000000, -1.000000000000, 1.000000000000, -1.000000000000, -1.000000000000, 1.000000000000, 1.000000000000, -1.000000000000, -1.000000000000, -1.000000000000, 1.000000000000, -1.000000000000, -1.000000000000, 1.000000000000, -1.000000000000, -1.000000000000, -1.000000000000, -1.000000000000, -1.000000000000, 1.000000000000, 1.000000000000, 1.000000000000, 1.000000000000, 1.000000000000, -1.000000000000, 1.000000000000, 1.000000000000, -1.000000000000, -1.000000000000, -1.000000000000, 1.000000000000, 1.000000000000, 1.000000000000, 1.000000000000, -1.000000000000, -1.000000000000, -1.000000000000, 1.000000000000, 1.000000000000, 1.000000000000, 1.000000000000, -1.000000000000, 1.000000000000, 1.000000000000, 1.000000000000, 1.000000000000, 1.000000000000, -1.000000000000, 1.000000000000, -1.000000000000, 1.000000000000, 1.000000000000, 1.000000000000, -1.000000000000, -1.000000000000, -1.000000000000, -1.000000000000, 1.000000000000, 1.000000000000, 1.000000000000, 1.000000000000, -1.000000000000, -1.000000000000, 1.000000000000, 1.000000000000, -1.000000000000, -1.000000000000, -1.000000000000, 1.000000000000, -1.000000000000, 1.000000000000, 1.000000000000, 1.000000000000, 1.000000000000, -1.000000000000, 1.000000000000, 1.000000000000, 1.000000000000, -1.000000000000, 1.000000000000, 1.000000000000, -1.000000000000, -1.000000000000, -1.000000000000, -1.000000000000, -1.000000000000, -1.000000000000, -1.000000000000, 1.000000000000, -1.000000000000, -1.000000000000, -1.000000000000, 1.000000000000, 1.000000000000, 1.000000000000, -1.000000000000, 1.000000000000, -1.000000000000, -1.000000000000, -1.000000000000, 1.000000000000, -1.000000000000, 1.000000000000, -1.000000000000, -1.000000000000, -1.000000000000, 1.000000000000, 1.000000000000, 1.000000000000, 1.000000000000, -1.000000000000, -1.000000000000, 1.000000000000, -1.000000000000, 1.000000000000, 1.000000000000, 1.000000000000, -1.000000000000, 1.000000000000, -1.000000000000, 1.000000000000, -1.000000000000, 1.000000000000, 1.000000000000, -1.000000000000, 1.000000000000, -1.000000000000, -1.000000000000, -1.000000000000, 1.000000000000, 1.000000000000, -1.000000000000, 1.000000000000, 1.000000000000, 1.000000000000, -1.000000000000, -1.000000000000, 1.000000000000, -1.000000000000, -1.000000000000, -1.000000000000, 1.000000000000, -1.000000000000, 1.000000000000, 1.000000000000, -1.000000000000, -1.000000000000, 1.000000000000, 1.000000000000, -1.000000000000, -1.000000000000, -1.000000000000, -1.000000000000, -1.000000000000, 1.000000000000, 1.000000000000, 1.000000000000, -1.000000000000, 1.000000000000, -1.000000000000, 1.000000000000, -1.000000000000, 1.000000000000, -1.000000000000, 1.000000000000, -1.000000000000, -1.000000000000, 1.000000000000, 1.000000000000, 1.000000000000, -1.000000000000, 1.000000000000, 1.000000000000, 1.000000000000, 1.000000000000, -1.000000000000, -1.000000000000, -1.000000000000, 1.000000000000, -1.000000000000, 1.000000000000, 1.000000000000, 1.000000000000, 1.000000000000, 1.000000000000, 1.000000000000, -1.000000000000, 1.000000000000, -1.000000000000, -1.000000000000, -1.000000000000, -1.000000000000, 1.000000000000, 1.000000000000, -1.000000000000, -1.000000000000, 1.000000000000, -1.000000000000, 1.000000000000, -1.000000000000, -1.000000000000, -1.000000000000, 1.000000000000, 1.000000000000, 1.000000000000, -1.000000000000, -1.000000000000, -1.000000000000, -1.000000000000, 1.000000000000, -1.000000000000, -1.000000000000, 1.000000000000, -1.000000000000, 1.000000000000, -1.000000000000, -1.000000000000, -1.000000000000, 1.000000000000, -1.000000000000, 1.000000000000, -1.000000000000, -1.000000000000, 1.000000000000, -1.000000000000, 1.000000000000, -1.000000000000, 1.000000000000, -1.000000000000, -1.000000000000, -1.000000000000, 1.000000000000, 1.000000000000, -1.000000000000, 1.000000000000, 1.000000000000, 1.000000000000, -1.000000000000, -1.000000000000, -1.000000000000, 1.000000000000, 1.000000000000, -1.000000000000, 1.000000000000, 1.000000000000, -1.000000000000, 1.000000000000, -1.000000000000, 1.000000000000, -1.000000000000, 1.000000000000, -1.000000000000, -1.000000000000, -1.000000000000, -1.000000000000, 1.000000000000, 1.000000000000, 1.000000000000, -1.000000000000, -1.000000000000, 1.000000000000, -1.000000000000, 1.000000000000, 1.000000000000, 1.000000000000, -1.000000000000, -1.000000000000, -1.000000000000, -1.000000000000, 1.000000000000, -1.000000000000, 1.000000000000, -1.000000000000, 1.000000000000, 1.000000000000, 1.000000000000, 1.000000000000, -1.000000000000, 1.000000000000, -1.000000000000, -1.000000000000, 1.000000000000, 1.000000000000, -1.000000000000, 1.000000000000, -1.000000000000, 1.000000000000, 1.000000000000, -1.000000000000, 1.000000000000, -1.000000000000, -1.000000000000, 1.000000000000, 1.000000000000, 1.000000000000, -1.000000000000, -1.000000000000, 1.000000000000, 1.000000000000, -1.000000000000, -1.000000000000, -1.000000000000, 1.000000000000, -1.000000000000, 1.000000000000, -1.000000000000, -1.000000000000, -1.000000000000, 1.000000000000, 1.000000000000, 1.000000000000, -1.000000000000, 1.000000000000, -1.000000000000, -1.000000000000, 1.000000000000, -1.000000000000, 1.000000000000, -1.000000000000, -1.000000000000, 1.000000000000, -1.000000000000, -1.000000000000, 1.000000000000, 1.000000000000, 1.000000000000, 1.000000000000, -1.000000000000, 1.000000000000, 1.000000000000, -1.000000000000, 1.000000000000, -1.000000000000, -1.000000000000, -1.000000000000, -1.000000000000, -1.000000000000, 1.000000000000, -1.000000000000, -1.000000000000, 1.000000000000, 1.000000000000, -1.000000000000, 1.000000000000, -1.000000000000, -1.000000000000, 1.000000000000, -1.000000000000, -1.000000000000, 1.000000000000, -1.000000000000, 1.000000000000, 1.000000000000, -1.000000000000, -1.000000000000, 1.000000000000, 1.000000000000, 1.000000000000, 1.000000000000, 1.000000000000, -1.000000000000, 1.000000000000, -1.000000000000, -1.000000000000, -1.000000000000, 1.000000000000, 1.000000000000, -1.000000000000, -1.000000000000, 1.000000000000, -1.000000000000, 1.000000000000, -1.000000000000, 1.000000000000, -1.000000000000, -1.000000000000, -1.000000000000, 1.000000000000, -1.000000000000, 1.000000000000, -1.000000000000, 1.000000000000, -1.000000000000, -1.000000000000, 1.000000000000, -1.000000000000, -1.000000000000, -1.000000000000, -1.000000000000, -1.000000000000, 1.000000000000, -1.000000000000, 1.000000000000, -1.000000000000, -1.000000000000, -1.000000000000, -1.000000000000, -1.000000000000, 1.000000000000, 1.000000000000, -1.000000000000, -1.000000000000, -1.000000000000, 1.000000000000, -1.000000000000, 1.000000000000, 1.000000000000, -1.000000000000, -1.000000000000, -1.000000000000, -1.000000000000, 1.000000000000, 1.000000000000, -1.000000000000, 1.000000000000, -1.000000000000, 1.000000000000, -1.000000000000, -1.000000000000, -1.000000000000, -1.000000000000, 1.000000000000, -1.000000000000, -1.000000000000, -1.000000000000, 1.000000000000, -1.000000000000, 1.000000000000, -1.000000000000, 1.000000000000, -1.000000000000, -1.000000000000, -1.000000000000, 1.000000000000, -1.000000000000, 1.000000000000, 1.000000000000, 1.000000000000, -1.000000000000, -1.000000000000, -1.000000000000, 1.000000000000, 1.000000000000, -1.000000000000, -1.000000000000, 1.000000000000, -1.000000000000, -1.000000000000, 1.000000000000, 1.000000000000, -1.000000000000, 1.000000000000, -1.000000000000, 1.000000000000, 1.000000000000, 1.000000000000, -1.000000000000, 1.000000000000, 1.000000000000, -1.000000000000, 1.000000000000, -1.000000000000, 1.000000000000, 1.000000000000, 1.000000000000, -1.000000000000, 1.000000000000, 1.000000000000, -1.000000000000, -1.000000000000, 1.000000000000, 1.000000000000, 1.000000000000, -1.000000000000, 1.000000000000, 1.000000000000, -1.000000000000, -1.000000000000, 1.000000000000, 1.000000000000, -1.000000000000, -1.000000000000, 1.000000000000, 1.000000000000, 1.000000000000, 1.000000000000, 1.000000000000, 1.000000000000, 1.000000000000, 1.000000000000, -1.000000000000, -1.000000000000, 1.000000000000, -1.000000000000, -1.000000000000, -1.000000000000, 1.000000000000, 1.000000000000, 1.000000000000, 1.000000000000, -1.000000000000, -1.000000000000, 1.000000000000, -1.000000000000, -1.000000000000, -1.000000000000, -1.000000000000, 1.000000000000, 1.000000000000, 1.000000000000, -1.000000000000, 1.000000000000, 1.000000000000, 1.000000000000, 1.000000000000, 1.000000000000, 1.000000000000, -1.000000000000, -1.000000000000, -1.000000000000, -1.000000000000, -1.000000000000, 1.000000000000, -1.000000000000, -1.000000000000, 1.000000000000, -1.000000000000, 1.000000000000, 1.000000000000, -1.000000000000, 1.000000000000, -1.000000000000, 1.000000000000, -1.000000000000, -1.000000000000, 1.000000000000, -1.000000000000, -1.000000000000, -1.000000000000, -1.000000000000, -1.000000000000, 1.000000000000, -1.000000000000, 1.000000000000, 1.000000000000, -1.000000000000, -1.000000000000, 1.000000000000, 1.000000000000, -1.000000000000, 1.000000000000, -1.000000000000, 1.000000000000, 1.000000000000, -1.000000000000, -1.000000000000, -1.000000000000, -1.000000000000, -1.000000000000, -1.000000000000, 1.000000000000, -1.000000000000, -1.000000000000, -1.000000000000, 1.000000000000, -1.000000000000, -1.000000000000, 1.000000000000, -1.000000000000, -1.000000000000, -1.000000000000, -1.000000000000, 1.000000000000, 1.000000000000, -1.000000000000, 1.000000000000, 1.000000000000, -1.000000000000, -1.000000000000, -1.000000000000, 1.000000000000, 1.000000000000, 1.000000000000, 1.000000000000, -1.000000000000, 1.000000000000, 1.000000000000, -1.000000000000, -1.000000000000, -1.000000000000, 1.000000000000, -1.000000000000, -1.000000000000, -1.000000000000, 1.000000000000, 1.000000000000, 1.000000000000, -1.000000000000, -1.000000000000, -1.000000000000, 1.000000000000, 1.000000000000, 1.000000000000, -1.000000000000, -1.000000000000, -1.000000000000, -1.000000000000, 1.000000000000, -1.000000000000, 1.000000000000, 1.000000000000, 1.000000000000, 1.000000000000, -1.000000000000, -1.000000000000, -1.000000000000, -1.000000000000, 1.000000000000, 1.000000000000, 1.000000000000, -1.000000000000, 1.000000000000, 1.000000000000, -1.000000000000, -1.000000000000, 1.000000000000, -1.000000000000, 1.000000000000, -1.000000000000, -1.000000000000, 1.000000000000, 1.000000000000, -1.000000000000, 1.000000000000, 1.000000000000, -1.000000000000, 1.000000000000, 1.000000000000, 1.000000000000, 1.000000000000, 1.000000000000, -1.000000000000, -1.000000000000, 1.000000000000, 1.000000000000, -1.000000000000, 1.000000000000, 1.000000000000, -1.000000000000, -1.000000000000, 1.000000000000, 1.000000000000, 1.000000000000, -1.000000000000, 1.000000000000, 1.000000000000, -1.000000000000, -1.000000000000, -1.000000000000, 1.000000000000, 1.000000000000, -1.000000000000, -1.000000000000, -1.000000000000, 1.000000000000, -1.000000000000, 1.000000000000, -1.000000000000, 1.000000000000, -1.000000000000, 1.000000000000, -1.000000000000, 1.000000000000, 1.000000000000, 1.000000000000, 1.000000000000, -1.000000000000, -1.000000000000, 1.000000000000, 1.000000000000, -1.000000000000, 1.000000000000, -1.000000000000, 1.000000000000, 1.000000000000, 1.000000000000, 1.000000000000, 1.000000000000, -1.000000000000, 1.000000000000, 1.000000000000, -1.000000000000, 1.000000000000, 1.000000000000, 1.000000000000, -1.000000000000, -1.000000000000, -1.000000000000, 1.000000000000, -1.000000000000, -1.000000000000, -1.000000000000, 1.000000000000, -1.000000000000, -1.000000000000, -1.000000000000, -1.000000000000, 1.000000000000, -1.000000000000, -1.000000000000, -1.000000000000, 1.000000000000, 1.000000000000, -1.000000000000, 1.000000000000, -1.000000000000, 1.000000000000, 1.000000000000, -1.000000000000, 1.000000000000, 1.000000000000, 1.000000000000, -1.000000000000, 1.000000000000, -1.000000000000, -1.000000000000, 1.000000000000, 1.000000000000, -1.000000000000, -1.000000000000, -1.000000000000, 1.000000000000, 1.000000000000, -1.000000000000, 1.000000000000, 1.000000000000, 1.000000000000, 1.000000000000, 1.000000000000, -1.000000000000, 1.000000000000, -1.000000000000, -1.000000000000, 1.000000000000, 1.000000000000, -1.000000000000, -1.000000000000, 1.000000000000, 1.000000000000, 1.000000000000, 1.000000000000, -1.000000000000, 1.000000000000, 1.000000000000, 1.000000000000, 1.000000000000, 1.000000000000, 1.000000000000, 1.000000000000, -1.000000000000, -1.000000000000, 1.000000000000, -1.000000000000, 1.000000000000, -1.000000000000, -1.000000000000, -1.000000000000, 1.000000000000, -1.000000000000, 1.000000000000, -1.000000000000, 1.000000000000, 1.000000000000, 1.000000000000, -1.000000000000, -1.000000000000, -1.000000000000, 1.000000000000, 1.000000000000, -1.000000000000, 1.000000000000, 1.000000000000, -1.000000000000, 1.000000000000, -1.000000000000, -1.000000000000, 1.000000000000, 1.000000000000, -1.000000000000, 1.000000000000, 1.000000000000, -1.000000000000, -1.000000000000, -1.000000000000, -1.000000000000, 1.000000000000, -1.000000000000, 1.000000000000, -1.000000000000, -1.000000000000, -1.000000000000, 1.000000000000, -1.000000000000, -1.000000000000, 1.000000000000, -1.000000000000, 1.000000000000, -1.000000000000, -1.000000000000, -1.000000000000, -1.000000000000, -1.000000000000, 1.000000000000, -1.000000000000, -1.000000000000, -1.000000000000, 1.000000000000, -1.000000000000, 1.000000000000, -1.000000000000, -1.000000000000, -1.000000000000, 1.000000000000, 1.000000000000, -1.000000000000, -1.000000000000, -1.000000000000, -1.000000000000, -1.000000000000, 1.000000000000, 1.000000000000, -1.000000000000, -1.000000000000, -1.000000000000, 1.000000000000, 1.000000000000, -1.000000000000, 1.000000000000, -1.000000000000, 1.000000000000, -1.000000000000, 1.000000000000, -1.000000000000, -1.000000000000, -1.000000000000, -1.000000000000, -1.000000000000, -1.000000000000, 1.000000000000, 1.000000000000, -1.000000000000, -1.000000000000, -1.000000000000, 1.000000000000, 1.000000000000, -1.000000000000, 1.000000000000, 1.000000000000, -1.000000000000, 1.000000000000, 1.000000000000, -1.000000000000, -1.000000000000, 1.000000000000, 1.000000000000, -1.000000000000, -1.000000000000, -1.000000000000, 1.000000000000, -1.000000000000, -1.000000000000, 1.000000000000, -1.000000000000, -1.000000000000, 1.000000000000, -1.000000000000, 1.000000000000, -1.000000000000, 1.000000000000, -1.000000000000, -1.000000000000, -1.000000000000, 1.000000000000, 1.000000000000, -1.000000000000, -1.000000000000, -1.000000000000, -1.000000000000, 1.000000000000, 1.000000000000, 1.000000000000, -1.000000000000, -1.000000000000, 1.000000000000, 1.000000000000, -1.000000000000, -1.000000000000, -1.000000000000, -1.000000000000, 1.000000000000, 1.000000000000, -1.000000000000, -1.000000000000, -1.000000000000, -1.000000000000, -1.000000000000, 1.000000000000, -1.000000000000, -1.000000000000, 1.000000000000, 1.000000000000, -1.000000000000, -1.000000000000, 1.000000000000, -1.000000000000, -1.000000000000, -1.000000000000, -1.000000000000, -1.000000000000, 1.000000000000, -1.000000000000, -1.000000000000, 1.000000000000, -1.000000000000, 1.000000000000, -1.000000000000, -1.000000000000, -1.000000000000, 1.000000000000, -1.000000000000, -1.000000000000, 1.000000000000, -1.000000000000, 1.000000000000, -1.000000000000, 1.000000000000, 1.000000000000, 1.000000000000, 1.000000000000, 1.000000000000, -1.000000000000, -1.000000000000, -1.000000000000, 1.000000000000, 1.000000000000, -1.000000000000, -1.000000000000, -1.000000000000, 1.000000000000, -1.000000000000, -1.000000000000, -1.000000000000, 1.000000000000, -1.000000000000, 1.000000000000, 1.000000000000, -1.000000000000, 1.000000000000, 1.000000000000, -1.000000000000, -1.000000000000, 1.000000000000, -1.000000000000, -1.000000000000, -1.000000000000, -1.000000000000, 1.000000000000, -1.000000000000, -1.000000000000, -1.000000000000, -1.000000000000, 1.000000000000, 1.000000000000, -1.000000000000, 1.000000000000, 1.000000000000, -1.000000000000, -1.000000000000, -1.000000000000, 1.000000000000, -1.000000000000, -1.000000000000, 1.000000000000, 1.000000000000, 1.000000000000, -1.000000000000, 1.000000000000, 1.000000000000, -1.000000000000, -1.000000000000, 1.000000000000, -1.000000000000, 1.000000000000, 1.000000000000, 1.000000000000, 1.000000000000, -1.000000000000, -1.000000000000, -1.000000000000, 1.000000000000, -1.000000000000, 1.000000000000, 1.000000000000, -1.000000000000, -1.000000000000, 1.000000000000, -1.000000000000, -1.000000000000, -1.000000000000, 1.000000000000, 1.000000000000, 1.000000000000, 1.000000000000, 1.000000000000, -1.000000000000, -1.000000000000, -1.000000000000, 1.000000000000, 1.000000000000, 1.000000000000, -1.000000000000, 1.000000000000, 1.000000000000, 1.000000000000, 1.000000000000, -1.000000000000, 1.000000000000, -1.000000000000, 1.000000000000, 1.000000000000, -1.000000000000, -1.000000000000, -1.000000000000, -1.000000000000, 1.000000000000, 1.000000000000, 1.000000000000, 1.000000000000, 1.000000000000, 1.000000000000, -1.000000000000, 1.000000000000, -1.000000000000, 1.000000000000, 1.000000000000, 1.000000000000, -1.000000000000, 1.000000000000, -1.000000000000, -1.000000000000, -1.000000000000, 1.000000000000, -1.000000000000, 1.000000000000, -1.000000000000, 1.000000000000, 1.000000000000, 1.000000000000, 1.000000000000, 1.000000000000, -1.000000000000, -1.000000000000, -1.000000000000, 1.000000000000, -1.000000000000, -1.000000000000, -1.000000000000, -1.000000000000, 1.000000000000, -1.000000000000, 1.000000000000, 1.000000000000, 1.000000000000, 1.000000000000, 1.000000000000, -1.000000000000, 1.000000000000, -1.000000000000, -1.000000000000, 1.000000000000, 1.000000000000, -1.000000000000, -1.000000000000, -1.000000000000, 1.000000000000, -1.000000000000, -1.000000000000, -1.000000000000, 1.000000000000, 1.000000000000, -1.000000000000, 1.000000000000, -1.000000000000, -1.000000000000, -1.000000000000, -1.000000000000, -1.000000000000, -1.000000000000, 1.000000000000, 1.000000000000, -1.000000000000, 1.000000000000, 1.000000000000, -1.000000000000, -1.000000000000, -1.000000000000, 1.000000000000, 1.000000000000, -1.000000000000, -1.000000000000, -1.000000000000, -1.000000000000, -1.000000000000, -1.000000000000, 1.000000000000, -1.000000000000, 1.000000000000, -1.000000000000, -1.000000000000, -1.000000000000, 1.000000000000, -1.000000000000, 1.000000000000, 1.000000000000, 1.000000000000, 1.000000000000, 1.000000000000, -1.000000000000, 1.000000000000, 1.000000000000, -1.000000000000, 1.000000000000, 1.000000000000, 1.000000000000, 1.000000000000, -1.000000000000, 1.000000000000, 1.000000000000, 1.000000000000, -1.000000000000, -1.000000000000, 1.000000000000, 1.000000000000, -1.000000000000, 1.000000000000, 1.000000000000, -1.000000000000, -1.000000000000, -1.000000000000, 1.000000000000, 1.000000000000, 1.000000000000, 1.000000000000, -1.000000000000, -1.000000000000, -1.000000000000, 1.000000000000, 1.000000000000, -1.000000000000, 1.000000000000, 1.000000000000, -1.000000000000, -1.000000000000, -1.000000000000, -1.000000000000, -1.000000000000, -1.000000000000, 1.000000000000, -1.000000000000, 1.000000000000, -1.000000000000, -1.000000000000, 1.000000000000, -1.000000000000, 1.000000000000, -1.000000000000, -1.000000000000, 1.000000000000, -1.000000000000, -1.000000000000, -1.000000000000, 1.000000000000, -1.000000000000, -1.000000000000, 1.000000000000, 1.000000000000, 1.000000000000, 1.000000000000, 1.000000000000, -1.000000000000, 1.000000000000, -1.000000000000, 1.000000000000, 1.000000000000, -1.000000000000, 1.000000000000, -1.000000000000, -1.000000000000, -1.000000000000, 1.000000000000, 1.000000000000, -1.000000000000, 1.000000000000, 1.000000000000, 1.000000000000, 1.000000000000, -1.000000000000, 1.000000000000, -1.000000000000, -1.000000000000, 1.000000000000, 1.000000000000, -1.000000000000, -1.000000000000, -1.000000000000, -1.000000000000, -1.000000000000, -1.000000000000, 1.000000000000, 1.000000000000, -1.000000000000, 1.000000000000, -1.000000000000, -1.000000000000, -1.000000000000, 1.000000000000, -1.000000000000, 1.000000000000, 1.000000000000, 1.000000000000, -1.000000000000, 1.000000000000, 1.000000000000, 1.000000000000, 1.000000000000, 1.000000000000, 1.000000000000, 1.000000000000, -1.000000000000, -1.000000000000, -1.000000000000, 1.000000000000, 1.000000000000, 1.000000000000, -1.000000000000, 1.000000000000, -1.000000000000, 1.000000000000, -1.000000000000, 1.000000000000, -1.000000000000, -1.000000000000, 1.000000000000, -1.000000000000, -1.000000000000, 1.000000000000, 1.000000000000, 1.000000000000, -1.000000000000, 1.000000000000, -1.000000000000, 1.000000000000, -1.000000000000, -1.000000000000, -1.000000000000, -1.000000000000, 1.000000000000, -1.000000000000, 1.000000000000, -1.000000000000, -1.000000000000, 1.000000000000, -1.000000000000, 1.000000000000, -1.000000000000, -1.000000000000, 1.000000000000, 1.000000000000, -1.000000000000, -1.000000000000, -1.000000000000, 1.000000000000, 1.000000000000, 1.000000000000, -1.000000000000, 1.000000000000, -1.000000000000, 1.000000000000, 1.000000000000, 1.000000000000, -1.000000000000, -1.000000000000, -1.000000000000, 1.000000000000, 1.000000000000, 1.000000000000, 1.000000000000, -1.000000000000, 1.000000000000, -1.000000000000, -1.000000000000, 1.000000000000, 1.000000000000, -1.000000000000, -1.000000000000, 1.000000000000, 1.000000000000, -1.000000000000, 1.000000000000, -1.000000000000, 1.000000000000, 1.000000000000, 1.000000000000, 1.000000000000, 1.000000000000, -1.000000000000, 1.000000000000, -1.000000000000, 1.000000000000, -1.000000000000, -1.000000000000, 1.000000000000, 1.000000000000, -1.000000000000, -1.000000000000, -1.000000000000, -1.000000000000, 1.000000000000, -1.000000000000, -1.000000000000, -1.000000000000, -1.000000000000, -1.000000000000, -1.000000000000, 1.000000000000, -1.000000000000, -1.000000000000, -1.000000000000, -1.000000000000, -1.000000000000, 1.000000000000, 1.000000000000, 1.000000000000, -1.000000000000, -1.000000000000, 1.000000000000, -1.000000000000, 1.000000000000, 1.000000000000, -1.000000000000, -1.000000000000, 1.000000000000, -1.000000000000, -1.000000000000, -1.000000000000, 1.000000000000, 1.000000000000, -1.000000000000, -1.000000000000, -1.000000000000, -1.000000000000, -1.000000000000, 1.000000000000, -1.000000000000, -1.000000000000, 1.000000000000, -1.000000000000, -1.000000000000, 1.000000000000, -1.000000000000, 1.000000000000, -1.000000000000, -1.000000000000, 1.000000000000, -1.000000000000, 1.000000000000, -1.000000000000, 1.000000000000, 1.000000000000, -1.000000000000, -1.000000000000, -1.000000000000, 1.000000000000, -1.000000000000, 1.000000000000, 1.000000000000, -1.000000000000, -1.000000000000, 1.000000000000, 1.000000000000, 1.000000000000, 1.000000000000, -1.000000000000, 1.000000000000, 1.000000000000, 1.000000000000, -1.000000000000, -1.000000000000, 1.000000000000, 1.000000000000, -1.000000000000, -1.000000000000, 1.000000000000, -1.000000000000, 1.000000000000, 1.000000000000, 1.000000000000, 1.000000000000, -1.000000000000, -1.000000000000, -1.000000000000, 1.000000000000, 1.000000000000, -1.000000000000, 1.000000000000, -1.000000000000, -1.000000000000, -1.000000000000, 1.000000000000, 1.000000000000, -1.000000000000, 1.000000000000, -1.000000000000, -1.000000000000, 1.000000000000, 1.000000000000, 1.000000000000, 1.000000000000, 1.000000000000, 1.000000000000, -1.000000000000, 1.000000000000, -1.000000000000, 1.000000000000, -1.000000000000, 1.000000000000, -1.000000000000, 1.000000000000, 1.000000000000, 1.000000000000, 1.000000000000, -1.000000000000, -1.000000000000, 1.000000000000, -1.000000000000, 1.000000000000, -1.000000000000, -1.000000000000, -1.000000000000, 1.000000000000, 1.000000000000, 1.000000000000, -1.000000000000, 1.000000000000, 1.000000000000, 1.000000000000, 1.000000000000, 1.000000000000, -1.000000000000, 1.000000000000, 1.000000000000, -1.000000000000, -1.000000000000, 1.000000000000, 1.000000000000, -1.000000000000, -1.000000000000, 1.000000000000, -1.000000000000, -1.000000000000, 1.000000000000, 1.000000000000, -1.000000000000, 1.000000000000, -1.000000000000, -1.000000000000, -1.000000000000, 1.000000000000, -1.000000000000, 1.000000000000, -1.000000000000, -1.000000000000, 1.000000000000, -1.000000000000, 1.000000000000, -1.000000000000, -1.000000000000, 1.000000000000, -1.000000000000, -1.000000000000, -1.000000000000, 1.000000000000, 1.000000000000, 1.000000000000, -1.000000000000, -1.000000000000, 1.000000000000, -1.000000000000, 1.000000000000, 1.000000000000, -1.000000000000, -1.000000000000, 1.000000000000, -1.000000000000, 1.000000000000, 1.000000000000, -1.000000000000, 1.000000000000, 1.000000000000, -1.000000000000, 1.000000000000, 1.000000000000, -1.000000000000, 1.000000000000, -1.000000000000, -1.000000000000, 1.000000000000, -1.000000000000, -1.000000000000, -1.000000000000, -1.000000000000, -1.000000000000, -1.000000000000, 1.000000000000, 1.000000000000, -1.000000000000, -1.000000000000, 1.000000000000, 1.000000000000, 1.000000000000, 1.000000000000, 1.000000000000, -1.000000000000, -1.000000000000, 1.000000000000, 1.000000000000, 1.000000000000, 1.000000000000, -1.000000000000, 1.000000000000, 1.000000000000, -1.000000000000, 1.000000000000, 1.000000000000, 1.000000000000, -1.000000000000, -1.000000000000, -1.000000000000, 1.000000000000, -1.000000000000, 1.000000000000, -1.000000000000, 1.000000000000, 1.000000000000, 1.000000000000, -1.000000000000, 1.000000000000, 1.000000000000, 1.000000000000, -1.000000000000, 1.000000000000, 1.000000000000, -1.000000000000, 1.000000000000, -1.000000000000, 1.000000000000, -1.000000000000, -1.000000000000, -1.000000000000, -1.000000000000, -1.000000000000, -1.000000000000, 1.000000000000, 1.000000000000, -1.000000000000, 1.000000000000, 1.000000000000, 1.000000000000, -1.000000000000, -1.000000000000, 1.000000000000, -1.000000000000, 1.000000000000, -1.000000000000, -1.000000000000, 1.000000000000, 1.000000000000, -1.000000000000, -1.000000000000, 1.000000000000, -1.000000000000, -1.000000000000, 1.000000000000, -1.000000000000, 1.000000000000, 1.000000000000, 1.000000000000, -1.000000000000, 1.000000000000, 1.000000000000, -1.000000000000, -1.000000000000, 1.000000000000, 1.000000000000, 1.000000000000, -1.000000000000, -1.000000000000, -1.000000000000, 1.000000000000, -1.000000000000, 1.000000000000, 1.000000000000, 1.000000000000, 1.000000000000, 1.000000000000, -1.000000000000, 1.000000000000, 1.000000000000, 1.000000000000, 1.000000000000, 1.000000000000, -1.000000000000, 1.000000000000, -1.000000000000, 1.000000000000, -1.000000000000, 1.000000000000, 1.000000000000, 1.000000000000, -1.000000000000, 1.000000000000, -1.000000000000, 1.000000000000, 1.000000000000, 1.000000000000, -1.000000000000, -1.000000000000, -1.000000000000, 1.000000000000, 1.000000000000, 1.000000000000, 1.000000000000, -1.000000000000, 1.000000000000, -1.000000000000, -1.000000000000, -1.000000000000, 1.000000000000, -1.000000000000, 1.000000000000, -1.000000000000, 1.000000000000, -1.000000000000, -1.000000000000, 1.000000000000, 1.000000000000, 1.000000000000, 1.000000000000, -1.000000000000, 1.000000000000, -1.000000000000, -1.000000000000, 1.000000000000, -1.000000000000, 1.000000000000, -1.000000000000, -1.000000000000, -1.000000000000, 1.000000000000, 1.000000000000, 1.000000000000, 1.000000000000, 1.000000000000, 1.000000000000, -1.000000000000, 1.000000000000, 1.000000000000, 1.000000000000, -1.000000000000, 1.000000000000, -1.000000000000, 1.000000000000, -1.000000000000, -1.000000000000, 1.000000000000, 1.000000000000, 1.000000000000, -1.000000000000, -1.000000000000, 1.000000000000, 1.000000000000, 1.000000000000, -1.000000000000, -1.000000000000, 1.000000000000, 1.000000000000, -1.000000000000, -1.000000000000, 1.000000000000, -1.000000000000, 1.000000000000, 1.000000000000, 1.000000000000, -1.000000000000, 1.000000000000, 1.000000000000, -1.000000000000, -1.000000000000, 1.000000000000, 1.000000000000, -1.000000000000, 1.000000000000, -1.000000000000, 1.000000000000, -1.000000000000, 1.000000000000, -1.000000000000, 1.000000000000, 1.000000000000, 1.000000000000, 1.000000000000, 1.000000000000, 1.000000000000, -1.000000000000, -1.000000000000, -1.000000000000, 1.000000000000, 1.000000000000, -1.000000000000, 1.000000000000, 1.000000000000, -1.000000000000, -1.000000000000, 1.000000000000, 1.000000000000, 1.000000000000, 1.000000000000, 1.000000000000, -1.000000000000, 1.000000000000, -1.000000000000, -1.000000000000, -1.000000000000, 1.000000000000, 1.000000000000, 1.000000000000, 1.000000000000, -1.000000000000, -1.000000000000, -1.000000000000, -1.000000000000, 1.000000000000, -1.000000000000, -1.000000000000, 1.000000000000, 1.000000000000, -1.000000000000, -1.000000000000, 1.000000000000, -1.000000000000, 1.000000000000, 1.000000000000, 1.000000000000, -1.000000000000, -1.000000000000, -1.000000000000, 1.000000000000, -1.000000000000, -1.000000000000, -1.000000000000, -1.000000000000, 1.000000000000, -1.000000000000, 1.000000000000, 1.000000000000, 1.000000000000, 1.000000000000, -1.000000000000, 1.000000000000, -1.000000000000, -1.000000000000, -1.000000000000, -1.000000000000, -1.000000000000, 1.000000000000, 1.000000000000, -1.000000000000, 1.000000000000, 1.000000000000, 1.000000000000, 1.000000000000, -1.000000000000, 1.000000000000, -1.000000000000, 1.000000000000, -1.000000000000, -1.000000000000, 1.000000000000, -1.000000000000, 1.000000000000, -1.000000000000, -1.000000000000, 1.000000000000, 1.000000000000, -1.000000000000, 1.000000000000, -1.000000000000, 1.000000000000, 1.000000000000, -1.000000000000, -1.000000000000, 1.000000000000, 1.000000000000, -1.000000000000, 1.000000000000, 1.000000000000, -1.000000000000, 1.000000000000, 1.000000000000, -1.000000000000, -1.000000000000, -1.000000000000, -1.000000000000, 1.000000000000, 1.000000000000, -1.000000000000, 1.000000000000, -1.000000000000, -1.000000000000, -1.000000000000, 1.000000000000, 1.000000000000, 1.000000000000, 1.000000000000, -1.000000000000, -1.000000000000, -1.000000000000, -1.000000000000, 1.000000000000, 1.000000000000, 1.000000000000, 1.000000000000, 1.000000000000, 1.000000000000, 1.000000000000, -1.000000000000, -1.000000000000, -1.000000000000, 1.000000000000, 1.000000000000, 1.000000000000, -1.000000000000, 1.000000000000, -1.000000000000, 1.000000000000, 1.000000000000, 1.000000000000, 1.000000000000, -1.000000000000, 1.000000000000, 1.000000000000, -1.000000000000, 1.000000000000, -1.000000000000, -1.000000000000, 1.000000000000, -1.000000000000, -1.000000000000, 1.000000000000, 1.000000000000, 1.000000000000, 1.000000000000, -1.000000000000, 1.000000000000, -1.000000000000, 1.000000000000, 1.000000000000, 1.000000000000, 1.000000000000, -1.000000000000, -1.000000000000, 1.000000000000, -1.000000000000, 1.000000000000, -1.000000000000, 1.000000000000, -1.000000000000, -1.000000000000, -1.000000000000, 1.000000000000, 1.000000000000, -1.000000000000, 1.000000000000, -1.000000000000, -1.000000000000, -1.000000000000, -1.000000000000, 1.000000000000, 1.000000000000, 1.000000000000, -1.000000000000, -1.000000000000, -1.000000000000, 1.000000000000, 1.000000000000, 1.000000000000, -1.000000000000, -1.000000000000, -1.000000000000, -1.000000000000, 1.000000000000, -1.000000000000, -1.000000000000, -1.000000000000, 1.000000000000, -1.000000000000, -1.000000000000, 1.000000000000, -1.000000000000, 1.000000000000, -1.000000000000, 1.000000000000, -1.000000000000, 1.000000000000, -1.000000000000, -1.000000000000, 1.000000000000, -1.000000000000, 1.000000000000, -1.000000000000, 1.000000000000, -1.000000000000, -1.000000000000, -1.000000000000, -1.000000000000, 1.000000000000, 1.000000000000, -1.000000000000, -1.000000000000, -1.000000000000, 1.000000000000, -1.000000000000, -1.000000000000, 1.000000000000, 1.000000000000, 1.000000000000, 1.000000000000, -1.000000000000, -1.000000000000, 1.000000000000, -1.000000000000, 1.000000000000, 1.000000000000, 1.000000000000, -1.000000000000, -1.000000000000, -1.000000000000, 1.000000000000, -1.000000000000, 1.000000000000, -1.000000000000, -1.000000000000, -1.000000000000, -1.000000000000, 1.000000000000, -1.000000000000, -1.000000000000, 1.000000000000, 1.000000000000, 1.000000000000, -1.000000000000, 1.000000000000, -1.000000000000, -1.000000000000, 1.000000000000, 1.000000000000, -1.000000000000, 1.000000000000, 1.000000000000, -1.000000000000, 1.000000000000, 1.000000000000, -1.000000000000, -1.000000000000, -1.000000000000, 1.000000000000, 1.000000000000, -1.000000000000, 1.000000000000, 1.000000000000, 1.000000000000, -1.000000000000, 1.000000000000, -1.000000000000, 1.000000000000, -1.000000000000, 1.000000000000, -1.000000000000, -1.000000000000, -1.000000000000, -1.000000000000, 1.000000000000, 1.000000000000, 1.000000000000, -1.000000000000, -1.000000000000, 1.000000000000, -1.000000000000, 1.000000000000, 1.000000000000, 1.000000000000, 1.000000000000, -1.000000000000, -1.000000000000, -1.000000000000, 1.000000000000, 1.000000000000, -1.000000000000, -1.000000000000, 1.000000000000, -1.000000000000, -1.000000000000, 1.000000000000, 1.000000000000, -1.000000000000, -1.000000000000, -1.000000000000, 1.000000000000, 1.000000000000, 1.000000000000, 1.000000000000, -1.000000000000, 1.000000000000, -1.000000000000, -1.000000000000, -1.000000000000, -1.000000000000, 1.000000000000, 1.000000000000, -1.000000000000, 1.000000000000, 1.000000000000, -1.000000000000, -1.000000000000, -1.000000000000, -1.000000000000, -1.000000000000, -1.000000000000, 1.000000000000, -1.000000000000, 1.000000000000, -1.000000000000, -1.000000000000, -1.000000000000, 1.000000000000, -1.000000000000, -1.000000000000, 1.000000000000, 1.000000000000, 1.000000000000, 1.000000000000, -1.000000000000, 1.000000000000, -1.000000000000, 1.000000000000, -1.000000000000, 1.000000000000, 1.000000000000, -1.000000000000, -1.000000000000, -1.000000000000, 1.000000000000, 1.000000000000, -1.000000000000, 1.000000000000, -1.000000000000, -1.000000000000, 1.000000000000, 1.000000000000, 1.000000000000, 1.000000000000, 1.000000000000, -1.000000000000, 1.000000000000, -1.000000000000, 1.000000000000, 1.000000000000, -1.000000000000, 1.000000000000, -1.000000000000, 1.000000000000, 1.000000000000, 1.000000000000, -1.000000000000, 1.000000000000, 1.000000000000, 1.000000000000, 1.000000000000, -1.000000000000, 1.000000000000, -1.000000000000, -1.000000000000, -1.000000000000, -1.000000000000, -1.000000000000, 1.000000000000, -1.000000000000, 1.000000000000, 1.000000000000, 1.000000000000, -1.000000000000, -1.000000000000, 1.000000000000, 1.000000000000, -1.000000000000, -1.000000000000, 1.000000000000, 1.000000000000, 1.000000000000, -1.000000000000, 1.000000000000, 1.000000000000, 1.000000000000, 1.000000000000, 1.000000000000, -1.000000000000, -1.000000000000, -1.000000000000, -1.000000000000, -1.000000000000, -1.000000000000, 1.000000000000, -1.000000000000, 1.000000000000, 1.000000000000, 1.000000000000, -1.000000000000, -1.000000000000, 1.000000000000, 1.000000000000, -1.000000000000, -1.000000000000, 1.000000000000, -1.000000000000, 1.000000000000, -1.000000000000, 1.000000000000, 1.000000000000, 1.000000000000, -1.000000000000, -1.000000000000, 1.000000000000, -1.000000000000, -1.000000000000, 1.000000000000, -1.000000000000, 1.000000000000, 1.000000000000, -1.000000000000, 1.000000000000, 1.000000000000, -1.000000000000, -1.000000000000, -1.000000000000, -1.000000000000, -1.000000000000, 1.000000000000, 1.000000000000, 1.000000000000, -1.000000000000, -1.000000000000, -1.000000000000, 1.000000000000, 1.000000000000, -1.000000000000, 1.000000000000, 1.000000000000, 1.000000000000, 1.000000000000, -1.000000000000, -1.000000000000, 1.000000000000, 1.000000000000, 1.000000000000, 1.000000000000, -1.000000000000, -1.000000000000, -1.000000000000, 1.000000000000, 1.000000000000, -1.000000000000, 1.000000000000, 1.000000000000, -1.000000000000, -1.000000000000, 1.000000000000, 1.000000000000, 1.000000000000, -1.000000000000, 1.000000000000, 1.000000000000, 1.000000000000, -1.000000000000, -1.000000000000, -1.000000000000, -1.000000000000, -1.000000000000, -1.000000000000, 1.000000000000, 1.000000000000, -1.000000000000, 1.000000000000, -1.000000000000, 1.000000000000, 1.000000000000, 1.000000000000, 1.000000000000, -1.000000000000, -1.000000000000, -1.000000000000, 1.000000000000, 1.000000000000, -1.000000000000, -1.000000000000, -1.000000000000, 1.000000000000, -1.000000000000, 1.000000000000, -1.000000000000, -1.000000000000, -1.000000000000, -1.000000000000, 1.000000000000, -1.000000000000, 1.000000000000, -1.000000000000, -1.000000000000, -1.000000000000, 1.000000000000, -1.000000000000, 1.000000000000, -1.000000000000, -1.000000000000, 1.000000000000, 1.000000000000, -1.000000000000, -1.000000000000, -1.000000000000, -1.000000000000, 1.000000000000, -1.000000000000, 1.000000000000, 1.000000000000, 1.000000000000, -1.000000000000, 1.000000000000, 1.000000000000, 1.000000000000, 1.000000000000, 1.000000000000, -1.000000000000, -1.000000000000, -1.000000000000, 1.000000000000, 1.000000000000, -1.000000000000, 1.000000000000, -1.000000000000, 1.000000000000, -1.000000000000, -1.000000000000, -1.000000000000, -1.000000000000, 1.000000000000, 1.000000000000, 1.000000000000, 1.000000000000, 1.000000000000, 1.000000000000, 1.000000000000, -1.000000000000, 1.000000000000, 1.000000000000, 1.000000000000, 1.000000000000, -1.000000000000, -1.000000000000, -1.000000000000, 1.000000000000, -1.000000000000, -1.000000000000, -1.000000000000, 1.000000000000, 1.000000000000, -1.000000000000, 1.000000000000, -1.000000000000, -1.000000000000, -1.000000000000, -1.000000000000, 1.000000000000, -1.000000000000, 1.000000000000, -1.000000000000, 1.000000000000, 1.000000000000, 1.000000000000, -1.000000000000, 1.000000000000, 1.000000000000, -1.000000000000, -1.000000000000, 1.000000000000, -1.000000000000, 1.000000000000, 1.000000000000, -1.000000000000, -1.000000000000, -1.000000000000, -1.000000000000, 1.000000000000, -1.000000000000, -1.000000000000, -1.000000000000, 1.000000000000, -1.000000000000, -1.000000000000, -1.000000000000, -1.000000000000, 1.000000000000, -1.000000000000, 1.000000000000, -1.000000000000, -1.000000000000, -1.000000000000, -1.000000000000, 1.000000000000, 1.000000000000, 1.000000000000, 1.000000000000, 1.000000000000, 1.000000000000, -1.000000000000, -1.000000000000, 1.000000000000, 1.000000000000, 1.000000000000, -1.000000000000, -1.000000000000, -1.000000000000, -1.000000000000, -1.000000000000, 1.000000000000, -1.000000000000, -1.000000000000, -1.000000000000, 1.000000000000, -1.000000000000, 1.000000000000, 1.000000000000, -1.000000000000, 1.000000000000, 1.000000000000, -1.000000000000, 1.000000000000, 1.000000000000, 1.000000000000, -1.000000000000, 1.000000000000, -1.000000000000, -1.000000000000, 1.000000000000, 1.000000000000, -1.000000000000, -1.000000000000, 1.000000000000, -1.000000000000, -1.000000000000, 1.000000000000, 1.000000000000, -1.000000000000, 1.000000000000, 1.000000000000, -1.000000000000, -1.000000000000, 1.000000000000, -1.000000000000, -1.000000000000, 1.000000000000, -1.000000000000, -1.000000000000, -1.000000000000, 1.000000000000, 1.000000000000, 1.000000000000, 1.000000000000, 1.000000000000, -1.000000000000, 1.000000000000, -1.000000000000, -1.000000000000, 1.000000000000, 1.000000000000, 1.000000000000, 1.000000000000, 1.000000000000, 1.000000000000, -1.000000000000, -1.000000000000, 1.000000000000, 1.000000000000, 1.000000000000, -1.000000000000, -1.000000000000, 1.000000000000, -1.000000000000, 1.000000000000, 1.000000000000, -1.000000000000, -1.000000000000, 1.000000000000, -1.000000000000, -1.000000000000, 1.000000000000, 1.000000000000, -1.000000000000, -1.000000000000, 1.000000000000, 1.000000000000, -1.000000000000, 1.000000000000, 1.000000000000, -1.000000000000, 1.000000000000, 1.000000000000, -1.000000000000, 1.000000000000, 1.000000000000, -1.000000000000, -1.000000000000, 1.000000000000, -1.000000000000, 1.000000000000, 1.000000000000, -1.000000000000, 1.000000000000, 1.000000000000, -1.000000000000, 1.000000000000, 1.000000000000, -1.000000000000, 1.000000000000, 1.000000000000, -1.000000000000, 1.000000000000, -1.000000000000, -1.000000000000, 1.000000000000, 1.000000000000, 1.000000000000, 1.000000000000, -1.000000000000, 1.000000000000, 1.000000000000, 1.000000000000, -1.000000000000, -1.000000000000, -1.000000000000, 1.000000000000, -1.000000000000, 1.000000000000, 1.000000000000, 1.000000000000, 1.000000000000, 1.000000000000, 1.000000000000, -1.000000000000, -1.000000000000, 1.000000000000, -1.000000000000, 1.000000000000, -1.000000000000, 1.000000000000, 1.000000000000, 1.000000000000, -1.000000000000, 1.000000000000, -1.000000000000, -1.000000000000, 1.000000000000, 1.000000000000, -1.000000000000, -1.000000000000, -1.000000000000, 1.000000000000, -1.000000000000, 1.000000000000, 1.000000000000, -1.000000000000, 1.000000000000, -1.000000000000, 1.000000000000, 1.000000000000, 1.000000000000, 1.000000000000, 1.000000000000, -1.000000000000, -1.000000000000, 1.000000000000, -1.000000000000, -1.000000000000, -1.000000000000, 1.000000000000, -1.000000000000, 1.000000000000, 1.000000000000, 1.000000000000, 1.000000000000, 1.000000000000, 1.000000000000, 1.000000000000, -1.000000000000, -1.000000000000, 1.000000000000, -1.000000000000, -1.000000000000, 1.000000000000, 1.000000000000, 1.000000000000, -1.000000000000, -1.000000000000, 1.000000000000, -1.000000000000, 1.000000000000, 1.000000000000, -1.000000000000, -1.000000000000, 1.000000000000, 1.000000000000, -1.000000000000, -1.000000000000, -1.000000000000, 1.000000000000, 1.000000000000, 1.000000000000, 1.000000000000, 1.000000000000, 1.000000000000, -1.000000000000, -1.000000000000, -1.000000000000, -1.000000000000, 1.000000000000, -1.000000000000, -1.000000000000, 1.000000000000, 1.000000000000, -1.000000000000, -1.000000000000, 1.000000000000, 1.000000000000, 1.000000000000, 1.000000000000, 1.000000000000, -1.000000000000, -1.000000000000, -1.000000000000, -1.000000000000, -1.000000000000, -1.000000000000, -1.000000000000, 1.000000000000, -1.000000000000, 1.000000000000, 1.000000000000, -1.000000000000, -1.000000000000, 1.000000000000, -1.000000000000, 1.000000000000, -1.000000000000, -1.000000000000, 1.000000000000, -1.000000000000, 1.000000000000, 1.000000000000, -1.000000000000, -1.000000000000, -1.000000000000, 1.000000000000, 1.000000000000, -1.000000000000, 1.000000000000, 1.000000000000, -1.000000000000, 1.000000000000, 1.000000000000, -1.000000000000, -1.000000000000, 1.000000000000, 1.000000000000, -1.000000000000, 1.000000000000, 1.000000000000, -1.000000000000, 1.000000000000, 1.000000000000, 1.000000000000, 1.000000000000, -1.000000000000, -1.000000000000, 1.000000000000, -1.000000000000, -1.000000000000, -1.000000000000, -1.000000000000, -1.000000000000, 1.000000000000, -1.000000000000, -1.000000000000, -1.000000000000, 1.000000000000, 1.000000000000, -1.000000000000, -1.000000000000, 1.000000000000, 1.000000000000, -1.000000000000, -1.000000000000, -1.000000000000, 1.000000000000, -1.000000000000, -1.000000000000, 1.000000000000, -1.000000000000, 1.000000000000, 1.000000000000, 1.000000000000, -1.000000000000, 1.000000000000, -1.000000000000, 1.000000000000, -1.000000000000, -1.000000000000, -1.000000000000, -1.000000000000, -1.000000000000, 1.000000000000, 1.000000000000, -1.000000000000, 1.000000000000, -1.000000000000, -1.000000000000, -1.000000000000, 1.000000000000, 1.000000000000, -1.000000000000, -1.000000000000, 1.000000000000, -1.000000000000, -1.000000000000, 1.000000000000, -1.000000000000, -1.000000000000, -1.000000000000, -1.000000000000, 1.000000000000, -1.000000000000, 1.000000000000, -1.000000000000, -1.000000000000, 1.000000000000, 1.000000000000, 1.000000000000, 1.000000000000, -1.000000000000, 1.000000000000, -1.000000000000, 1.000000000000, -1.000000000000, -1.000000000000, 1.000000000000, 1.000000000000, -1.000000000000, 1.000000000000, -1.000000000000, -1.000000000000, 1.000000000000, -1.000000000000, 1.000000000000, 1.000000000000, -1.000000000000, 1.000000000000, -1.000000000000, 1.000000000000, 1.000000000000, 1.000000000000, 1.000000000000, 1.000000000000, 1.000000000000, 1.000000000000, -1.000000000000, 1.000000000000, 1.000000000000, -1.000000000000, 1.000000000000, 1.000000000000, 1.000000000000, 1.000000000000, 1.000000000000, -1.000000000000, 1.000000000000, 1.000000000000, 1.000000000000, 1.000000000000, -1.000000000000, -1.000000000000, -1.000000000000, 1.000000000000, 1.000000000000, -1.000000000000, -1.000000000000, -1.000000000000, 1.000000000000, -1.000000000000, -1.000000000000, -1.000000000000, -1.000000000000, 1.000000000000, -1.000000000000, -1.000000000000, -1.000000000000, 1.000000000000, -1.000000000000, 1.000000000000, 1.000000000000, -1.000000000000, 1.000000000000, 1.000000000000, 1.000000000000, 1.000000000000, -1.000000000000, 1.000000000000, -1.000000000000, -1.000000000000, -1.000000000000, -1.000000000000, -1.000000000000, -1.000000000000, -1.000000000000, -1.000000000000, 1.000000000000, -1.000000000000, 1.000000000000, -1.000000000000, -1.000000000000, -1.000000000000, 1.000000000000, -1.000000000000, -1.000000000000, 1.000000000000, -1.000000000000, 1.000000000000, -1.000000000000, -1.000000000000, 1.000000000000, 1.000000000000, -1.000000000000, -1.000000000000, -1.000000000000, 1.000000000000, 1.000000000000, -1.000000000000, 1.000000000000, 1.000000000000, 1.000000000000, -1.000000000000, -1.000000000000, 1.000000000000, -1.000000000000, 1.000000000000, -1.000000000000, -1.000000000000, 1.000000000000, 1.000000000000, -1.000000000000, 1.000000000000, 1.000000000000, -1.000000000000, -1.000000000000, 1.000000000000, 1.000000000000, 1.000000000000, -1.000000000000, -1.000000000000, -1.000000000000, 1.000000000000, 1.000000000000, 1.000000000000, 1.000000000000, -1.000000000000, 1.000000000000, -1.000000000000, 1.000000000000, -1.000000000000, -1.000000000000, -1.000000000000, 1.000000000000, -1.000000000000, -1.000000000000, -1.000000000000, -1.000000000000, -1.000000000000, -1.000000000000, -1.000000000000, 1.000000000000, -1.000000000000, -1.000000000000, 1.000000000000, -1.000000000000, -1.000000000000, -1.000000000000, -1.000000000000, -1.000000000000, -1.000000000000, 1.000000000000, -1.000000000000, -1.000000000000, 1.000000000000, -1.000000000000, -1.000000000000, -1.000000000000, 1.000000000000, 1.000000000000, -1.000000000000, 1.000000000000, 1.000000000000, 1.000000000000, 1.000000000000, 1.000000000000, 1.000000000000, 1.000000000000, -1.000000000000, -1.000000000000, -1.000000000000, -1.000000000000, -1.000000000000, 1.000000000000, 1.000000000000, 1.000000000000, -1.000000000000, 1.000000000000, 1.000000000000, -1.000000000000, 1.000000000000, -1.000000000000, -1.000000000000, -1.000000000000, 1.000000000000, 1.000000000000, -1.000000000000, -1.000000000000, 1.000000000000, -1.000000000000, -1.000000000000, -1.000000000000, 1.000000000000, 1.000000000000, -1.000000000000, 1.000000000000, 1.000000000000, 1.000000000000, 1.000000000000, 1.000000000000, -1.000000000000, 1.000000000000, -1.000000000000, -1.000000000000, -1.000000000000, -1.000000000000, -1.000000000000, 1.000000000000, 1.000000000000, 1.000000000000, -1.000000000000, 1.000000000000, 1.000000000000, -1.000000000000, 1.000000000000, -1.000000000000, 1.000000000000, 1.000000000000, -1.000000000000, -1.000000000000, -1.000000000000, -1.000000000000, -1.000000000000, -1.000000000000, 1.000000000000, -1.000000000000, 1.000000000000, -1.000000000000, 1.000000000000, -1.000000000000, 1.000000000000, 1.000000000000, -1.000000000000, 1.000000000000, -1.000000000000, -1.000000000000, -1.000000000000, 1.000000000000, 1.000000000000, 1.000000000000, 1.000000000000, 1.000000000000, 1.000000000000, 1.000000000000, 1.000000000000, -1.000000000000, -1.000000000000, 1.000000000000, -1.000000000000, -1.000000000000, -1.000000000000, -1.000000000000, 1.000000000000, -1.000000000000, 1.000000000000, 1.000000000000, -1.000000000000, -1.000000000000, 1.000000000000, 1.000000000000, -1.000000000000, 1.000000000000, 1.000000000000, 1.000000000000, -1.000000000000, -1.000000000000, -1.000000000000, 1.000000000000, -1.000000000000, -1.000000000000, -1.000000000000, 1.000000000000, -1.000000000000, 1.000000000000, -1.000000000000, 1.000000000000, 1.000000000000, 1.000000000000, 1.000000000000, -1.000000000000, -1.000000000000, -1.000000000000, -1.000000000000, -1.000000000000, 1.000000000000, 1.000000000000, 1.000000000000, 1.000000000000, -1.000000000000, 1.000000000000, 1.000000000000, -1.000000000000, 1.000000000000, -1.000000000000, -1.000000000000, 1.000000000000, 1.000000000000, 1.000000000000, -1.000000000000, 1.000000000000, -1.000000000000, 1.000000000000, 1.000000000000, 1.000000000000, 1.000000000000, 1.000000000000, 1.000000000000, -1.000000000000, -1.000000000000, 1.000000000000, -1.000000000000, 1.000000000000, -1.000000000000, -1.000000000000, -1.000000000000, -1.000000000000, -1.000000000000, 1.000000000000, 1.000000000000, -1.000000000000, -1.000000000000, -1.000000000000, 1.000000000000, -1.000000000000, -1.000000000000, -1.000000000000, -1.000000000000, -1.000000000000, 1.000000000000, 1.000000000000, 1.000000000000, 1.000000000000, -1.000000000000, -1.000000000000, -1.000000000000, -1.000000000000, 1.000000000000, 1.000000000000, -1.000000000000, 1.000000000000, 1.000000000000, 1.000000000000, -1.000000000000, 1.000000000000, -1.000000000000, 1.000000000000, 1.000000000000, 1.000000000000, 1.000000000000, -1.000000000000, -1.000000000000, -1.000000000000, 1.000000000000, 1.000000000000, 1.000000000000, -1.000000000000, 1.000000000000, -1.000000000000, -1.000000000000, 1.000000000000, -1.000000000000, 1.000000000000, -1.000000000000, -1.000000000000, -1.000000000000, 1.000000000000, 1.000000000000, -1.000000000000, -1.000000000000, 1.000000000000, 1.000000000000, -1.000000000000, 1.000000000000, 1.000000000000, 1.000000000000, 1.000000000000, 1.000000000000, 1.000000000000, 1.000000000000, -1.000000000000, 1.000000000000, -1.000000000000, -1.000000000000, 1.000000000000, -1.000000000000, 1.000000000000, 1.000000000000, 1.000000000000, -1.000000000000, 1.000000000000, 1.000000000000, 1.000000000000, -1.000000000000, 1.000000000000, -1.000000000000, -1.000000000000, -1.000000000000, -1.000000000000, -1.000000000000, 1.000000000000, 1.000000000000, 1.000000000000, -1.000000000000, -1.000000000000, -1.000000000000, -1.000000000000, 1.000000000000, 1.000000000000, 1.000000000000, -1.000000000000, -1.000000000000, -1.000000000000, -1.000000000000, 1.000000000000, 1.000000000000, 1.000000000000, 1.000000000000, 1.000000000000, 1.000000000000, 1.000000000000, 1.000000000000, 1.000000000000, -1.000000000000, 1.000000000000, -1.000000000000, 1.000000000000, -1.000000000000, 1.000000000000, -1.000000000000, 1.000000000000, 1.000000000000, -1.000000000000, -1.000000000000, 1.000000000000, -1.000000000000, 1.000000000000, 1.000000000000, 1.000000000000, 1.000000000000, -1.000000000000, 1.000000000000, -1.000000000000, -1.000000000000, 1.000000000000, 1.000000000000, -1.000000000000, -1.000000000000, 1.000000000000, -1.000000000000, -1.000000000000, 1.000000000000, 1.000000000000, 1.000000000000, -1.000000000000, -1.000000000000, 1.000000000000, -1.000000000000, 1.000000000000, -1.000000000000, -1.000000000000, -1.000000000000, -1.000000000000, -1.000000000000, 1.000000000000, -1.000000000000, 1.000000000000, -1.000000000000, 1.000000000000, 1.000000000000, -1.000000000000, -1.000000000000, -1.000000000000, -1.000000000000, 1.000000000000, 1.000000000000, -1.000000000000, -1.000000000000, 1.000000000000, -1.000000000000, 1.000000000000, 1.000000000000, -1.000000000000, 1.000000000000, 1.000000000000, -1.000000000000, 1.000000000000, 1.000000000000, -1.000000000000, -1.000000000000, 1.000000000000, -1.000000000000, 1.000000000000, -1.000000000000, -1.000000000000, 1.000000000000, -1.000000000000, 1.000000000000, 1.000000000000, 1.000000000000, 1.000000000000, -1.000000000000, -1.000000000000, 1.000000000000, -1.000000000000, 1.000000000000, -1.000000000000, 1.000000000000, 1.000000000000, -1.000000000000, -1.000000000000, 1.000000000000, 1.000000000000, -1.000000000000, -1.000000000000, 1.000000000000, -1.000000000000, -1.000000000000, 1.000000000000, -1.000000000000, -1.000000000000, 1.000000000000, 1.000000000000, 1.000000000000, -1.000000000000, -1.000000000000, -1.000000000000, 1.000000000000, 1.000000000000, -1.000000000000, -1.000000000000, 1.000000000000, 1.000000000000, 1.000000000000, -1.000000000000, -1.000000000000, -1.000000000000, -1.000000000000, 1.000000000000, -1.000000000000, -1.000000000000, -1.000000000000, -1.000000000000, 1.000000000000, 1.000000000000, 1.000000000000, -1.000000000000, -1.000000000000, -1.000000000000, -1.000000000000, 1.000000000000, -1.000000000000, 1.000000000000, 1.000000000000, 1.000000000000, -1.000000000000, 1.000000000000, -1.000000000000, 1.000000000000, 1.000000000000, -1.000000000000, 1.000000000000, -1.000000000000, -1.000000000000, -1.000000000000, -1.000000000000, 1.000000000000, 1.000000000000, -1.000000000000, 1.000000000000, 1.000000000000, -1.000000000000, -1.000000000000, 1.000000000000, 1.000000000000, 1.000000000000, -1.000000000000, -1.000000000000, -1.000000000000, -1.000000000000, -1.000000000000, 1.000000000000, 1.000000000000, -1.000000000000, 1.000000000000, -1.000000000000, -1.000000000000, 1.000000000000, 1.000000000000, -1.000000000000, 1.000000000000, 1.000000000000, -1.000000000000, 1.000000000000, -1.000000000000, 1.000000000000, 1.000000000000, -1.000000000000, 1.000000000000, -1.000000000000, -1.000000000000, -1.000000000000, 1.000000000000, 1.000000000000, -1.000000000000, 1.000000000000, -1.000000000000, 1.000000000000, -1.000000000000, -1.000000000000, 1.000000000000, 1.000000000000, -1.000000000000, 1.000000000000, -1.000000000000, 1.000000000000, -1.000000000000, 1.000000000000, 1.000000000000, -1.000000000000, 1.000000000000, -1.000000000000, -1.000000000000, -1.000000000000, 1.000000000000, -1.000000000000, -1.000000000000, -1.000000000000, 1.000000000000, 1.000000000000, -1.000000000000, -1.000000000000, 1.000000000000, 1.000000000000, 1.000000000000, 1.000000000000, 1.000000000000, 1.000000000000, -1.000000000000, 1.000000000000, -1.000000000000, 1.000000000000, 1.000000000000, -1.000000000000, 1.000000000000, 1.000000000000, -1.000000000000, 1.000000000000, 1.000000000000, 1.000000000000, -1.000000000000, 1.000000000000, -1.000000000000, -1.000000000000, -1.000000000000, -1.000000000000, 1.000000000000, -1.000000000000, -1.000000000000, 1.000000000000, -1.000000000000, 1.000000000000, -1.000000000000, 1.000000000000, -1.000000000000, -1.000000000000, -1.000000000000, -1.000000000000, 1.000000000000, -1.000000000000, -1.000000000000, -1.000000000000, -1.000000000000, -1.000000000000, 1.000000000000, -1.000000000000, -1.000000000000, 1.000000000000, -1.000000000000, 1.000000000000, 1.000000000000, 1.000000000000, 1.000000000000, 1.000000000000, -1.000000000000, -1.000000000000, 1.000000000000, -1.000000000000, -1.000000000000, -1.000000000000, 1.000000000000, -1.000000000000, 1.000000000000, 1.000000000000, -1.000000000000, -1.000000000000, 1.000000000000, -1.000000000000, 1.000000000000, 1.000000000000, 1.000000000000, -1.000000000000, -1.000000000000, -1.000000000000, -1.000000000000, -1.000000000000, 1.000000000000, -1.000000000000, 1.000000000000, -1.000000000000, -1.000000000000, 1.000000000000, 1.000000000000, -1.000000000000, -1.000000000000, 1.000000000000, -1.000000000000, -1.000000000000, 1.000000000000, -1.000000000000, -1.000000000000, 1.000000000000, -1.000000000000, -1.000000000000, -1.000000000000, 1.000000000000, 1.000000000000, -1.000000000000, 1.000000000000, 1.000000000000, 1.000000000000, 1.000000000000, -1.000000000000, -1.000000000000, 1.000000000000, -1.000000000000, -1.000000000000, 1.000000000000, 1.000000000000, -1.000000000000, -1.000000000000, 1.000000000000, -1.000000000000, -1.000000000000, -1.000000000000, -1.000000000000, -1.000000000000, 1.000000000000, 1.000000000000, 1.000000000000, -1.000000000000, -1.000000000000, 1.000000000000, -1.000000000000, 1.000000000000, -1.000000000000, -1.000000000000, -1.000000000000, 1.000000000000, 1.000000000000, 1.000000000000, 1.000000000000, 1.000000000000, -1.000000000000, 1.000000000000, 1.000000000000, -1.000000000000, -1.000000000000, 1.000000000000, 1.000000000000, -1.000000000000, -1.000000000000, -1.000000000000, 1.000000000000, 1.000000000000, -1.000000000000, 1.000000000000, 1.000000000000, 1.000000000000, 1.000000000000, 1.000000000000, -1.000000000000, 1.000000000000, 1.000000000000, 1.000000000000, 1.000000000000, -1.000000000000, -1.000000000000, -1.000000000000, 1.000000000000, 1.000000000000, -1.000000000000, -1.000000000000, -1.000000000000, -1.000000000000, -1.000000000000, 1.000000000000, 1.000000000000, -1.000000000000, -1.000000000000, 1.000000000000, 1.000000000000, -1.000000000000, 1.000000000000, 1.000000000000, -1.000000000000, 1.000000000000, -1.000000000000, 1.000000000000, 1.000000000000, 1.000000000000, -1.000000000000, 1.000000000000, 1.000000000000, 1.000000000000, 1.000000000000, -1.000000000000, -1.000000000000, 1.000000000000, -1.000000000000, 1.000000000000, -1.000000000000, 1.000000000000, -1.000000000000, 1.000000000000, -1.000000000000, -1.000000000000, -1.000000000000, 1.000000000000, -1.000000000000, 1.000000000000, 1.000000000000, 1.000000000000, 1.000000000000, 1.000000000000, -1.000000000000, 1.000000000000, -1.000000000000, 1.000000000000, 1.000000000000, -1.000000000000, -1.000000000000, -1.000000000000, -1.000000000000, 1.000000000000, -1.000000000000, 1.000000000000, -1.000000000000, -1.000000000000, 1.000000000000, 1.000000000000, -1.000000000000, -1.000000000000, 1.000000000000, -1.000000000000, -1.000000000000, 1.000000000000, -1.000000000000, 1.000000000000, -1.000000000000, -1.000000000000, 1.000000000000, -1.000000000000, -1.000000000000, -1.000000000000, -1.000000000000, 1.000000000000, -1.000000000000, 1.000000000000, 1.000000000000, 1.000000000000, 1.000000000000, 1.000000000000, 1.000000000000, 1.000000000000, -1.000000000000, -1.000000000000, -1.000000000000, 1.000000000000, -1.000000000000, 1.000000000000, -1.000000000000, 1.000000000000, -1.000000000000, 1.000000000000, 1.000000000000, 1.000000000000, -1.000000000000, 1.000000000000, 1.000000000000, 1.000000000000, 1.000000000000, 1.000000000000, -1.000000000000, -1.000000000000, 1.000000000000, 1.000000000000, -1.000000000000, 1.000000000000, -1.000000000000, 1.000000000000, 1.000000000000, -1.000000000000, 1.000000000000, 1.000000000000, 1.000000000000, 1.000000000000, 1.000000000000, 1.000000000000, -1.000000000000, -1.000000000000, -1.000000000000, 1.000000000000, -1.000000000000, -1.000000000000, -1.000000000000, 1.000000000000, -1.000000000000, 1.000000000000, -1.000000000000, 1.000000000000, 1.000000000000, -1.000000000000, -1.000000000000, -1.000000000000, -1.000000000000, -1.000000000000, 1.000000000000, 1.000000000000, 1.000000000000, -1.000000000000, -1.000000000000, 1.000000000000, -1.000000000000, 1.000000000000, 1.000000000000, 1.000000000000, 1.000000000000, 1.000000000000, -1.000000000000, -1.000000000000, 1.000000000000, 1.000000000000, -1.000000000000, 1.000000000000, -1.000000000000, -1.000000000000, 1.000000000000, -1.000000000000, 1.000000000000, 1.000000000000, -1.000000000000, 1.000000000000, -1.000000000000, 1.000000000000, 1.000000000000, 1.000000000000, -1.000000000000, 1.000000000000, -1.000000000000, 1.000000000000, 1.000000000000, 1.000000000000, -1.000000000000, -1.000000000000, -1.000000000000, -1.000000000000, 1.000000000000, 1.000000000000, -1.000000000000, -1.000000000000, -1.000000000000, 1.000000000000, -1.000000000000, -1.000000000000, 1.000000000000, -1.000000000000, 1.000000000000, -1.000000000000, -1.000000000000, 1.000000000000, 1.000000000000, -1.000000000000, 1.000000000000, -1.000000000000, 1.000000000000, 1.000000000000, -1.000000000000, 1.000000000000, -1.000000000000, -1.000000000000, -1.000000000000, 1.000000000000, -1.000000000000, -1.000000000000, 1.000000000000, 1.000000000000, 1.000000000000, -1.000000000000, -1.000000000000, 1.000000000000, -1.000000000000, 1.000000000000, 1.000000000000, 1.000000000000, 1.000000000000, -1.000000000000, 1.000000000000, -1.000000000000, 1.000000000000, -1.000000000000, 1.000000000000, -1.000000000000, -1.000000000000, -1.000000000000, -1.000000000000, -1.000000000000, 1.000000000000, -1.000000000000, 1.000000000000, 1.000000000000, -1.000000000000, 1.000000000000, -1.000000000000, 1.000000000000, -1.000000000000, -1.000000000000, 1.000000000000, -1.000000000000, -1.000000000000, 1.000000000000, -1.000000000000, -1.000000000000, 1.000000000000, -1.000000000000, 1.000000000000, 1.000000000000, 1.000000000000, 1.000000000000, 1.000000000000, -1.000000000000, 1.000000000000, 1.000000000000, 1.000000000000, 1.000000000000, 1.000000000000, -1.000000000000, 1.000000000000, -1.000000000000, -1.000000000000, 1.000000000000, -1.000000000000, -1.000000000000, 1.000000000000, -1.000000000000, -1.000000000000, 1.000000000000, 1.000000000000, -1.000000000000, -1.000000000000, -1.000000000000, -1.000000000000, 1.000000000000, -1.000000000000, 1.000000000000, 1.000000000000, -1.000000000000, -1.000000000000, -1.000000000000, -1.000000000000, -1.000000000000, -1.000000000000, 1.000000000000, -1.000000000000, -1.000000000000, 1.000000000000, 1.000000000000, -1.000000000000, -1.000000000000, -1.000000000000, 1.000000000000, 1.000000000000, -1.000000000000, -1.000000000000, -1.000000000000, -1.000000000000, -1.000000000000, 1.000000000000, -1.000000000000, -1.000000000000, 1.000000000000, -1.000000000000, -1.000000000000, 1.000000000000, -1.000000000000, 1.000000000000, -1.000000000000, 1.000000000000, -1.000000000000, 1.000000000000, -1.000000000000, -1.000000000000, 1.000000000000, -1.000000000000, 1.000000000000, 1.000000000000, 1.000000000000, -1.000000000000, 1.000000000000, 1.000000000000, -1.000000000000, -1.000000000000, 1.000000000000, 1.000000000000, 1.000000000000, 1.000000000000, 1.000000000000, -1.000000000000, 1.000000000000, -1.000000000000, 1.000000000000, 1.000000000000, 1.000000000000, -1.000000000000, -1.000000000000, -1.000000000000, 1.000000000000, 1.000000000000, -1.000000000000, 1.000000000000, 1.000000000000, 1.000000000000, -1.000000000000, 1.000000000000, -1.000000000000, -1.000000000000, 1.000000000000, -1.000000000000, -1.000000000000, 1.000000000000, 1.000000000000, 1.000000000000, 1.000000000000, 1.000000000000, 1.000000000000, 1.000000000000, -1.000000000000, 1.000000000000, 1.000000000000, -1.000000000000, -1.000000000000, 1.000000000000, 1.000000000000, -1.000000000000, -1.000000000000, -1.000000000000, 1.000000000000, 1.000000000000, -1.000000000000, -1.000000000000, -1.000000000000, -1.000000000000, 1.000000000000, 1.000000000000, -1.000000000000, 1.000000000000, -1.000000000000, 1.000000000000, 1.000000000000, 1.000000000000, -1.000000000000, -1.000000000000, -1.000000000000, 1.000000000000, -1.000000000000, 1.000000000000, 1.000000000000, 1.000000000000, 1.000000000000, -1.000000000000, 1.000000000000, -1.000000000000, -1.000000000000, -1.000000000000, -1.000000000000, -1.000000000000, -1.000000000000, 1.000000000000, 1.000000000000, -1.000000000000, 1.000000000000, -1.000000000000, 1.000000000000, 1.000000000000, -1.000000000000, 1.000000000000, 1.000000000000, -1.000000000000, -1.000000000000, 1.000000000000, 1.000000000000, 1.000000000000, 1.000000000000, 1.000000000000, 1.000000000000, -1.000000000000, -1.000000000000, -1.000000000000, 1.000000000000, 1.000000000000, -1.000000000000, 1.000000000000, -1.000000000000, -1.000000000000, 1.000000000000, -1.000000000000, 1.000000000000, -1.000000000000, -1.000000000000, -1.000000000000, 1.000000000000, -1.000000000000, 1.000000000000, -1.000000000000, -1.000000000000, 1.000000000000, 1.000000000000, -1.000000000000, -1.000000000000, 1.000000000000, 1.000000000000, 1.000000000000, 1.000000000000, -1.000000000000, -1.000000000000, -1.000000000000, 1.000000000000, 1.000000000000, 1.000000000000, -1.000000000000, 1.000000000000, 1.000000000000, -1.000000000000, 1.000000000000, -1.000000000000, 1.000000000000, -1.000000000000, 1.000000000000, 1.000000000000, 1.000000000000, 1.000000000000, 1.000000000000, 1.000000000000, -1.000000000000, 1.000000000000, 1.000000000000, -1.000000000000, 1.000000000000, 1.000000000000, -1.000000000000, 1.000000000000, -1.000000000000, -1.000000000000, 1.000000000000, -1.000000000000, 1.000000000000, -1.000000000000, -1.000000000000, -1.000000000000, -1.000000000000, 1.000000000000, 1.000000000000, 1.000000000000, -1.000000000000, -1.000000000000, 1.000000000000, 1.000000000000, -1.000000000000, -1.000000000000, 1.000000000000, 1.000000000000, 1.000000000000, 1.000000000000, -1.000000000000, -1.000000000000, 1.000000000000, -1.000000000000, 1.000000000000, 1.000000000000, -1.000000000000, -1.000000000000, 1.000000000000, -1.000000000000, -1.000000000000, 1.000000000000, 1.000000000000, 1.000000000000, 1.000000000000, 1.000000000000, 1.000000000000, -1.000000000000, 1.000000000000, -1.000000000000, -1.000000000000, 1.000000000000, -1.000000000000, -1.000000000000, 1.000000000000, 1.000000000000, -1.000000000000, -1.000000000000, -1.000000000000, -1.000000000000, -1.000000000000, -1.000000000000, 1.000000000000, 1.000000000000, -1.000000000000, 1.000000000000, 1.000000000000, 1.000000000000, -1.000000000000, 1.000000000000, 1.000000000000, 1.000000000000, 1.000000000000, -1.000000000000, 1.000000000000, 1.000000000000, -1.000000000000, -1.000000000000, 1.000000000000, 1.000000000000, 1.000000000000, 1.000000000000, -1.000000000000, 1.000000000000, -1.000000000000, 1.000000000000, 1.000000000000, -1.000000000000, -1.000000000000, 1.000000000000, 1.000000000000, 1.000000000000, -1.000000000000, 1.000000000000, 1.000000000000, 1.000000000000, 1.000000000000, 