float w1[864] = {1, 1, -0.025307735428, -0.094922281802, -0.031438060105, -0.111710317433, 0.141170218587, 0.131873041391, 0.400728255510, 0.236983656883, 0.117069676518, -0.031749334186, -0.076223038137, -0.023801783100, -0.057000443339, -0.049084875733, -0.036943119019, 0.167159825563, 0.052776571363, 0.142137572169, -0.056520264596, 0.028543990105, 0.036011777818, -0.005996413529, 0.033560886979, 0.021821459755, -0.086380712688, 0.028853287920, -0.110686220229, 0.122286282480, 0.157194331288, -0.039357203990, -0.123239308596, 0.089560545981, -0.097422458231, -0.053953390568, -0.068363629282, 0.044407103211, 0.171605527401, -0.121982745826, 0.194639891386, 0.129839643836, -0.050679448992, -0.077471628785, 0.032280180603, 0.052090857178, -0.052058111876, 0.031640172005, 0.031845498830, 0.078496895730, 0.085596576333, 0.130964532495, -0.035677146167, -0.124930895865, -0.119203582406, 0.054975420237, -0.162509962916, -0.110646165907, -0.064419060946, -0.066269181669, -0.017622608691, 0.089812673628, 0.152336388826, 0.104214295745, 0.010719338432, -0.096658222377, 0.116695538163, 0.067902274430, 0.024563118815, -0.066577874124, 0.099437855184, -0.058227788657, 0.151478379965, 0.237924024463, 0.080677904189, 0.030687248334, 0.086060427129, 0.037663903087, -0.145389258862, 0.077928647399, 0.044881448150, 0.204707950354, 0.086629599333, 0.089984491467, -0.068667501211, -0.161133170128, -0.040715903044, -0.065518446267, 0.089652538300, 0.102022461593, 0.059141978621, 0.076935693622, -0.126102402806, 0.182127937675, 0.080600358546, -0.011192703620, -0.002437230432, -0.018126653507, -0.223015919328, 0.075240410864, 0.050810646266, -0.059122022241, 0.094428516924, -0.043004781008, 0.375297129154, 0.311105877161, 0.086093388498, 0.100093185902, 0.161445111036, 0.164098769426, 0.034011553973, -0.026557339355, -0.008825782686, -0.071327291429, 0.019936060533, 0.195379108191, -0.140460222960, -0.044041272253, -0.054550603032, -0.066184483469, -0.085911795497, -0.088802203536, -0.214021071792, 0.013157292269, -0.102550104260, 0.275927424431, -0.019173864275, 0.009943882003, -0.055136661977, -0.034206252545, 0.090007126331, 0.124953731894, 0.058386176825, 0.116190731525, 0.214390963316, -0.044071134180, 0.175766527653, 0.183804050088, -0.142579689622, -0.122294709086, 0.027639254928, 0.064674802125, -0.183334797621, -0.091202795506, -0.116095185280, 0.040032733232, 0.108486659825, 0.136377796531, -0.058999419212, -0.124226123095, -0.048027552664, -0.054772354662, -0.130234524608, -0.105671502650, -0.032816812396, 0.044137284160, 0.109910875559, 0.175538718700, -0.054227467626, -0.109799824655, -0.012413136661, -0.153458282351, -0.065754190087, 0.071637868881, -0.120308406651, 0.157583862543, 0.084659598768, 0.187814176083, 0.175609618425, -0.026346320286, -0.182012557983, 0.087419532239, 0.082208000124, 0.109060525894, -0.061190020293, -0.017619494349, 0.037773776799, 0.041156049818, -0.062916085124, 0.076483614743, -0.052603151649, -0.179104268551, 0.051479104906, -0.124490499496, -0.090222343802, 0.093843333423, -0.159770771861, 0.025496358052, -0.115239419043, 0.247954443097, -0.172011643648, 0.021933259442, 0.067996114492, -0.121780969203, -0.230553463101, 0.168389737606, 0.023775691167, -0.055691674352, 0.134592130780, 0.053132534027, 0.170437812805, 0.007138068788, 0.152386650443, -0.119171909988, -0.187907859683, 0.003922466654, -0.104342959821, -0.083606757224, -0.148603290319, 0.058485575020, 0.007680293173, 0.210905864835, -0.086655974388, 0.002529462799, 0.029582915828, 0.085033468902, -0.086404152215, -0.041079770774, 0.031071774662, 0.149677172303, 0.218908816576, 0.050912365317, 0.036399625242, 0.068691730499, 0.123019933701, 0.077065430582, -0.059046078473, 0.123264223337, 0.029975557700, 0.000127177685, 0.108141317964, -0.015516528860, 0.046714730561, 0.137706428766, 0.000265490613, 0.136381179094, -0.176481321454, 0.116079226136, 0.079630158842, -0.128983974457, 0.044291354716, 0.065646335483, -0.044344261289, 0.178593948483, -0.015589161776, 0.031823016703, 0.040064651519, -0.098102122545, -0.147822991014, -0.112747110426, 0.001614061999, 0.067756466568, 0.180084452033, -0.017608938739, -0.165585592389, 0.013353859074, -0.054951269180, -0.142119377851, -0.015511283651, 0.222569853067, -0.004726358224, 0.060364753008, -0.020422941074, 0.214819535613, 0.186097189784, 0.093072809279, 0.012944248505, -0.069820627570, -0.210953220725, 0.021016838029, 0.007045231294, -0.094915807247, 0.093588054180, 0.091176263988, 0.208251476288, 0.128143250942, 0.115014769137, -0.061674058437, -0.069654069841, 0.034491654485, 0.009746754542, 0.090120345354, -0.173482105136, 0.195954412222, 0.081548571587, 0.218416959047, -0.030456801876, 0.123968102038, -0.138122498989, -0.104649320245, 0.036988716573, 0.074726410210, -0.048556860536, 0.103846818209, 0.231589525938, -0.005524479784, 0.237982526422, 0.197917446494, -0.076704420149, -0.071684539318, 0.268852055073, -0.016371915117, 0.037508372217, -0.151673212647, 0.081789389253, -0.022927572951, -0.054379090667, 0.146893858910, -0.095804288983, -0.180005520582, 0.007195318583, 0.094245396554, -0.025700513273, 0.008313776925, -0.065802983940, -0.230791226029, 0.189486503601, -0.015496352687, 0.015460597351, 0.056327499449, 0.071017064154, -0.044986575842, -0.060003500432, 0.132541313767, 0.040990177542, -0.037980441004, 0.163318052888, 0.023600576445, 0.140856906772, 0.006054389756, -0.025024289265, 0.040131494403, 0.028235828504, 0.201674684882, 0.098641388118, -0.027383498847, -0.175917506218, 0.261664599180, 0.051348801702, -0.092519409955, -0.094362214208, -0.181847497821, -0.083553887904, -0.118190951645, -0.035389423370, -0.083848156035, -0.046779587865, -0.228357017040, 0.108118213713, -0.119506180286, 0.015220445581, -0.102915816009, -0.121166512370, -0.068265341222, 0.183272749186, 0.098137870431, 0.056184690446, 0.106194525957, 0.025700341910, 0.121094897389, 0.116851955652, 0.087730817497, 0.084287501872, -0.037653651088, 0.160725519061, 0.033358994871, -0.126845672727, -0.084043025970, 0.057547423989, 0.009039171971, -0.014032982290, -0.066787973046, -0.050134174526, -0.099628880620, 0.081383518875, -0.014163411222, -0.109538361430, 0.054178211838, -0.060481306165, -0.168900966644, 0.200870335102, 0.027360985056, 0.066378831863, -0.112340919673, -0.026504734531, -0.012365551665, -0.009202596731, 0.123958252370, 0.080628097057, 0.116619735956, 0.220323190093, 0.026292441413, 0.120116800070, 0.107629410923, -0.043286379427, -0.059433091432, 0.222199827433, -0.061145715415, -0.082765400410, -0.090751819313, -0.113935768604, 0.100898049772, -0.014655076899, -0.066058851779, 0.097642242908, -0.248128861189, 0.051696728915, -0.114443548024, -0.021936656907, -0.084308482707, -0.027641365305, -0.064762033522, 0.117122441530, 0.070859692991, -0.080600716174, -0.014272372238, 0.032354015857, 0.026471959427, 0.161703839898, -0.084358498454, -0.157271295786, -0.080415062606, 0.087163239717, 0.128836855292, -0.006037626881, -0.047888472676, 0.094640128314, -0.111540265381, 0.278082132339, -0.021511459723, 0.048262614757, -0.154059410095, -0.124603800476, 0.150816023350, 0.020778603852, -0.113455690444, 0.095387741923, -0.032289937139, 0.109086535871, 0.071418263018, -0.027270382270, 0.040247570723, -0.066771544516, -0.116134501994, 0.176438257098, 0.173811420798, 0.124776579440, -0.015307594091, -0.051027074456, -0.116999939084, 0.120077237487, -0.082580834627, -0.034483861178, 0.017582731321, 0.084309861064, 0.058453816921, 0.013019909151, -0.156353384256, -0.004898172803, -0.010719585232, 0.019363714382, 0.021638974547, 0.052022818476, -0.080577045679, -0.086417503655, 0.123033910990, -0.083621837199, -0.081924952567, -0.081550151110, -0.089003071189, 0.008089017123, -0.125041216612, 0.006739052013, 0.102065205574, -0.069981090724, -0.008031390607, 0.008531454951, 0.021817153320, 0.048421978951, -0.101354256272, -0.126790583134, 0.069562688470, -0.098924182355, 0.053900513798, -0.046879321337, 0.181128516793, 0.281406790018, 0.251394450665, 0.238103806973, -0.084084227681, 0.200277864933, 0.012727852911, 0.115197211504, -0.008240911178, 0.137350544333, -0.192447438836, -0.092810697854, -0.033428508788, -0.072132386267, 0.155432850122, 0.112829826772, 0.050609018654, -0.088039398193, -0.152694642544, -0.090512007475, -0.092691570520, 0.080866642296, 0.100149616599, 0.152421548963, 0.123918674886, 0.037382356822, -0.110203407705, 0.104648537934, -0.077991344035, -0.096373185515, 0.100071661174, -0.001417195308, 0.147823944688, 0.088667064905, 0.202547371387, 0.233091071248, 0.000657177123, 0.139382660389, -0.050452798605, 0.188882648945, 0.071464002132, 0.025558266789, -0.146889463067, -0.028063884005, 0.199803814292, 0.182170122862, 0.025358429179, -0.085742227733, -0.063538111746, -0.088672295213, -0.075496613979, -0.223531037569, 0.060200542212, -0.173554718494, -0.024879360572, 0.104718089104, 0.159417420626, -0.056949943304, -0.093872949481, -0.013654842041, -0.041421871632, 0.136531367898, -0.075686149299, 0.157243818045, -0.005196411628, 0.225817084312, 0.163057342172, 0.142772153020, -0.123559072614, -0.113192796707, -0.062713526189, 0.011178420857, -0.118643939495, 0.123216450214, -0.107236951590, -0.032606914639, 0.088574953377, -0.054624460638, -0.126121103764, 0.062322437763, 0.036340381950, -0.051216386259, 0.105083689094, -0.102488391101, 0.048996064812, -0.046057809144, -0.091242074966, 0.039806053042, 0.034295573831, -0.059420734644, -0.063610941172, 0.097781769931, -0.029008243233, -0.037822749466, -0.050693869591, 0.228360295296, -0.128477260470, 0.127671226859, 0.035512652248, 0.176942095160, 0.090114332736, -0.011566758156, -0.130301132798, 0.255056142807, -0.181765049696, 0.018231106922, -0.101487688720, -0.235919788480, 0.127613663673, -0.021326623857, 0.051025807858, -0.038348287344, -0.060581855476, -0.105400227010, -0.033748999238, 0.036272402853, -0.055684834719, 0.035461921245, -0.035196613520, 0.161913588643, -0.071270383894, -0.118273839355, -0.043712209910, -0.016648961231, 0.023634932935, 0.151722982526, -0.151106059551, -0.002990273992, -0.142680868506, -0.070201873779, -0.043165028095, -0.074701555073, 0.046048447490, -0.051030326635, 0.012217330746, 0.295511364937, -0.010317672044, -0.148597821593, -0.032911423594, -0.075261458755, 0.146429181099, -0.069374270737, 0.090535141528, -0.140080288053, -0.114528104663, -0.050085972995, 0.093219310045, -0.006479392294, -0.099486455321, -0.127004191279, -0.092848725617, 0.118051059544, 0.009424852207, -0.098843067884, 0.035741299391, 0.048255726695, -0.146101430058, 0.156791806221, 0.042890623212, 0.101019404829, 0.005854704883, 0.085705824196, -0.046410202980, -0.144164547324, 0.058756127954, 0.017633065581, 0.092460468411, 0.184619382024, -0.108167074621, 0.012611174025, -0.100943081081, -0.012378278188, 0.110545217991, -0.137037917972, 0.006472633686, -0.108674153686, 0.070692330599, -0.131707400084, -0.043625846505, -0.038603868335, -0.127474933863, 0.016260383651, -0.027770014480, 0.083047978580, -0.008949344046, 0.034506089985, -0.065999642015, 0.064965896308, 0.025660833344, 0.121067814529, -0.046296205372, 0.123109459877, -0.132853806019, -0.021638752893, -0.040898997337, 0.068410821259, 0.138094589114, -0.000494989567, -0.096790798008, 0.277572631836, 0.075072392821, -0.136121943593, -0.188737899065, -0.099596038461, 0.055730130523, -0.117926456034, -0.037419874221, 0.053701486439, -0.011542636901, -0.014614342712, -0.130888327956, -0.011775171384, -0.117982864380, -0.208321645856, 0.057400416583, 0.221513763070, -0.041963696480, -0.071826241910, -0.102826677263, -0.062277328223, 0.030924335122, 0.111570052803, -0.078179925680, 0.172545880079, -0.070370338857, -0.003804995678, -0.035006713122, -0.026455616578, 0.012642758898, 0.150545269251, -0.103981763124, 0.149223357439, -0.082393489778, -0.208179593086, -0.183736875653, -0.185998693109, 0.197322860360, -0.006750484463, -0.006525509525, 0.013072828762, -0.038489971310, -0.035032827407, 0.099204771221, -0.099714301527, -0.070852622390, -0.155083119869, 0.114443816245, 0.062502592802, -0.044578690082, -0.189963996410, 0.030791871250, 0.012199341320, -0.080623954535, 0.047013994306, 0.033758796751, 0.015922598541, -0.004340300802, -0.047610893846, 0.010867689736, 0.143468171358, 0.012463077903, -0.091063715518, -0.032435018569, 0.247828453779, 0.019920071587, -0.153866291046, -0.037191215903, -0.074853748083, 0.228647321463, -0.041813563555, -0.185974359512, -0.053197644651, 0.048656884581, 0.068557351828, 0.031077660620, -0.027299623936, -0.145522311330, -0.119566790760, 0.122065827250, 0.043101120740, 0.052341140807, -0.024808125570, -0.100372493267, -0.111918114126, 0.007946223021, 0.118574284017, 0.238149181008, 0.104407206178, -0.118083886802, 0.153799235821, 0.051366917789, 0.203502699733, 0.019698008895, -0.073220089078, -0.024605719373, 0.180263891816, -0.137638092041, -0.013272900134, 0.040419839323, 0.030903810635, -0.169191271067, -0.027320144698, -0.156725034118, -0.114053182304, -0.089662119746, 0.013000744395, 0.080350928009, -0.019452415407, -0.065930888057, 0.022787136957, 0.136478379369, 0.060108248144, 0.007343425881, -0.017913129181, -0.079160183668, 0.077478118241, -0.051505517215, 0.079542681575, -0.052817687392, -0.011649272405, -0.022388776764, 0.033271726221, -0.021979408339, 0.131119892001, -0.156142979860, -0.070253334939, 0.007385091390, 0.188605591655, -0.129038035870, -0.149574965239, -0.010545805097, 0.092551767826, 0.139744400978, -0.059297513217, 0.057537194341, 0.065965980291, -0.153122395277, -0.048489149660, -0.104253761470, -0.087014690042, 0.013087723404, -0.119560793042, 0.101138859987, 0.124541282654, -0.011163987219, -0.063669592142, 0.099382348359, 0.005815013777, -0.167159512639, 0.271698474884, 0.130165114999, 0.095138862729, 0.005968193524, -0.077754706144, 0.009081393480, 0.186442136765, -0.184601366520, -0.031158991158, 0.066429741681, 0.091968148947, -0.147856846452, -0.047825589776, 0.028791282326, 0.087925292552, 0.215649604797, 0.093132585287, -0.220520332456, -0.009434089996, -0.022171614692, -0.101512938738, -0.133613899350, -0.070156373084, -0.083443999290, 0.021951243281, 0.150553032756, 0.008580936119, -0.060721099377, 0.075356513262, -0.095091700554};
